digraph Tree {
node [shape=box] ;
0 [label="MonthlyIncome <= 10300.0\ngini = 0.27\nsamples = 4382\nvalue = [3677, 705]"] ;
1 [label="gini = 0.0\nsamples = 3\nvalue = [0, 3]"] ;
0 -> 1 [labeldistance=2.5, labelangle=45, headlabel="True"] ;
2 [label="MonthlyIncome <= 76900.0\ngini = 0.269\nsamples = 4379\nvalue = [3677, 702]"] ;
0 -> 2 [labeldistance=2.5, labelangle=-45, headlabel="False"] ;
3 [label="MonthlyIncome <= 76430.0\ngini = 0.284\nsamples = 3196\nvalue = [2649, 547]"] ;
2 -> 3 ;
4 [label="MonthlyIncome <= 54710.0\ngini = 0.281\nsamples = 3187\nvalue = [2649, 538]"] ;
3 -> 4 ;
5 [label="MonthlyIncome <= 53975.0\ngini = 0.267\nsamples = 2507\nvalue = [2109, 398]"] ;
4 -> 5 ;
6 [label="MonthlyIncome <= 53930.0\ngini = 0.271\nsamples = 2457\nvalue = [2059, 398]"] ;
5 -> 6 ;
7 [label="MonthlyIncome <= 20075.0\ngini = 0.27\nsamples = 2454\nvalue = [2059, 395]"] ;
6 -> 7 ;
8 [label="MonthlyIncome <= 17040.0\ngini = 0.389\nsamples = 102\nvalue = [75, 27]"] ;
7 -> 8 ;
9 [label="MonthlyIncome <= 14180.0\ngini = 0.26\nsamples = 78\nvalue = [66, 12]"] ;
8 -> 9 ;
10 [label="MonthlyIncome <= 11645.0\ngini = 0.117\nsamples = 48\nvalue = [45, 3]"] ;
9 -> 10 ;
11 [label="MonthlyIncome <= 11235.0\ngini = 0.245\nsamples = 21\nvalue = [18, 3]"] ;
10 -> 11 ;
12 [label="gini = 0.0\nsamples = 18\nvalue = [18, 0]"] ;
11 -> 12 ;
13 [label="gini = 0.0\nsamples = 3\nvalue = [0, 3]"] ;
11 -> 13 ;
14 [label="gini = 0.0\nsamples = 27\nvalue = [27, 0]"] ;
10 -> 14 ;
15 [label="MonthlyIncome <= 15850.0\ngini = 0.42\nsamples = 30\nvalue = [21, 9]"] ;
9 -> 15 ;
16 [label="MonthlyIncome <= 14515.0\ngini = 0.5\nsamples = 18\nvalue = [9, 9]"] ;
15 -> 16 ;
17 [label="gini = 0.0\nsamples = 3\nvalue = [0, 3]"] ;
16 -> 17 ;
18 [label="MonthlyIncome <= 15345.0\ngini = 0.48\nsamples = 15\nvalue = [9, 6]"] ;
16 -> 18 ;
19 [label="gini = 0.0\nsamples = 6\nvalue = [6, 0]"] ;
18 -> 19 ;
20 [label="MonthlyIncome <= 15590.0\ngini = 0.444\nsamples = 9\nvalue = [3, 6]"] ;
18 -> 20 ;
21 [label="gini = 0.0\nsamples = 3\nvalue = [0, 3]"] ;
20 -> 21 ;
22 [label="MonthlyIncome <= 15660.0\ngini = 0.5\nsamples = 6\nvalue = [3, 3]"] ;
20 -> 22 ;
23 [label="gini = 0.0\nsamples = 3\nvalue = [3, 0]"] ;
22 -> 23 ;
24 [label="gini = 0.0\nsamples = 3\nvalue = [0, 3]"] ;
22 -> 24 ;
25 [label="gini = 0.0\nsamples = 12\nvalue = [12, 0]"] ;
15 -> 25 ;
26 [label="MonthlyIncome <= 18245.0\ngini = 0.469\nsamples = 24\nvalue = [9, 15]"] ;
8 -> 26 ;
27 [label="gini = 0.0\nsamples = 6\nvalue = [0, 6]"] ;
26 -> 27 ;
28 [label="MonthlyIncome <= 18910.0\ngini = 0.5\nsamples = 18\nvalue = [9, 9]"] ;
26 -> 28 ;
29 [label="gini = 0.0\nsamples = 6\nvalue = [6, 0]"] ;
28 -> 29 ;
30 [label="MonthlyIncome <= 19760.0\ngini = 0.375\nsamples = 12\nvalue = [3, 9]"] ;
28 -> 30 ;
31 [label="MonthlyIncome <= 19275.0\ngini = 0.5\nsamples = 6\nvalue = [3, 3]"] ;
30 -> 31 ;
32 [label="gini = 0.0\nsamples = 3\nvalue = [0, 3]"] ;
31 -> 32 ;
33 [label="gini = 0.0\nsamples = 3\nvalue = [3, 0]"] ;
31 -> 33 ;
34 [label="gini = 0.0\nsamples = 6\nvalue = [0, 6]"] ;
30 -> 34 ;
35 [label="MonthlyIncome <= 20680.0\ngini = 0.264\nsamples = 2352\nvalue = [1984, 368]"] ;
7 -> 35 ;
36 [label="MonthlyIncome <= 20260.0\ngini = 0.083\nsamples = 69\nvalue = [66, 3]"] ;
35 -> 36 ;
37 [label="MonthlyIncome <= 20230.0\ngini = 0.219\nsamples = 24\nvalue = [21, 3]"] ;
36 -> 37 ;
38 [label="gini = 0.0\nsamples = 21\nvalue = [21, 0]"] ;
37 -> 38 ;
39 [label="gini = 0.0\nsamples = 3\nvalue = [0, 3]"] ;
37 -> 39 ;
40 [label="gini = 0.0\nsamples = 45\nvalue = [45, 0]"] ;
36 -> 40 ;
41 [label="MonthlyIncome <= 20715.0\ngini = 0.269\nsamples = 2283\nvalue = [1918, 365]"] ;
35 -> 41 ;
42 [label="gini = 0.5\nsamples = 6\nvalue = [3, 3]"] ;
41 -> 42 ;
43 [label="MonthlyIncome <= 29065.0\ngini = 0.267\nsamples = 2277\nvalue = [1915, 362]"] ;
41 -> 43 ;
44 [label="MonthlyIncome <= 28690.0\ngini = 0.293\nsamples = 908\nvalue = [746, 162]"] ;
43 -> 44 ;
45 [label="MonthlyIncome <= 24645.0\ngini = 0.277\nsamples = 884\nvalue = [737, 147]"] ;
44 -> 45 ;
46 [label="MonthlyIncome <= 24280.0\ngini = 0.229\nsamples = 471\nvalue = [409, 62]"] ;
45 -> 46 ;
47 [label="MonthlyIncome <= 24240.0\ngini = 0.25\nsamples = 423\nvalue = [361, 62]"] ;
46 -> 47 ;
48 [label="MonthlyIncome <= 24020.0\ngini = 0.241\nsamples = 420\nvalue = [361, 59]"] ;
47 -> 48 ;
49 [label="MonthlyIncome <= 23435.0\ngini = 0.224\nsamples = 397\nvalue = [346, 51]"] ;
48 -> 49 ;
50 [label="MonthlyIncome <= 20980.0\ngini = 0.268\nsamples = 320\nvalue = [269, 51]"] ;
49 -> 50 ;
51 [label="MonthlyIncome <= 20775.0\ngini = 0.133\nsamples = 42\nvalue = [39, 3]"] ;
50 -> 51 ;
52 [label="MonthlyIncome <= 20745.0\ngini = 0.375\nsamples = 12\nvalue = [9, 3]"] ;
51 -> 52 ;
53 [label="gini = 0.0\nsamples = 9\nvalue = [9, 0]"] ;
52 -> 53 ;
54 [label="gini = 0.0\nsamples = 3\nvalue = [0, 3]"] ;
52 -> 54 ;
55 [label="gini = 0.0\nsamples = 30\nvalue = [30, 0]"] ;
51 -> 55 ;
56 [label="MonthlyIncome <= 21020.0\ngini = 0.286\nsamples = 278\nvalue = [230, 48]"] ;
50 -> 56 ;
57 [label="gini = 0.0\nsamples = 3\nvalue = [0, 3]"] ;
56 -> 57 ;
58 [label="MonthlyIncome <= 21170.0\ngini = 0.274\nsamples = 275\nvalue = [230, 45]"] ;
56 -> 58 ;
59 [label="gini = 0.0\nsamples = 15\nvalue = [15, 0]"] ;
58 -> 59 ;
60 [label="MonthlyIncome <= 21200.0\ngini = 0.286\nsamples = 260\nvalue = [215, 45]"] ;
58 -> 60 ;
61 [label="gini = 0.0\nsamples = 3\nvalue = [0, 3]"] ;
60 -> 61 ;
62 [label="MonthlyIncome <= 21370.0\ngini = 0.273\nsamples = 257\nvalue = [215, 42]"] ;
60 -> 62 ;
63 [label="gini = 0.0\nsamples = 18\nvalue = [18, 0]"] ;
62 -> 63 ;
64 [label="MonthlyIncome <= 21420.0\ngini = 0.29\nsamples = 239\nvalue = [197, 42]"] ;
62 -> 64 ;
65 [label="gini = 0.0\nsamples = 3\nvalue = [0, 3]"] ;
64 -> 65 ;
66 [label="MonthlyIncome <= 21505.0\ngini = 0.276\nsamples = 236\nvalue = [197, 39]"] ;
64 -> 66 ;
67 [label="gini = 0.0\nsamples = 12\nvalue = [12, 0]"] ;
66 -> 67 ;
68 [label="MonthlyIncome <= 21535.0\ngini = 0.288\nsamples = 224\nvalue = [185, 39]"] ;
66 -> 68 ;
69 [label="gini = 0.0\nsamples = 3\nvalue = [0, 3]"] ;
68 -> 69 ;
70 [label="MonthlyIncome <= 21670.0\ngini = 0.273\nsamples = 221\nvalue = [185, 36]"] ;
68 -> 70 ;
71 [label="gini = 0.0\nsamples = 9\nvalue = [9, 0]"] ;
70 -> 71 ;
72 [label="MonthlyIncome <= 21710.0\ngini = 0.282\nsamples = 212\nvalue = [176, 36]"] ;
70 -> 72 ;
73 [label="gini = 0.0\nsamples = 3\nvalue = [0, 3]"] ;
72 -> 73 ;
74 [label="MonthlyIncome <= 21785.0\ngini = 0.266\nsamples = 209\nvalue = [176, 33]"] ;
72 -> 74 ;
75 [label="gini = 0.0\nsamples = 12\nvalue = [12, 0]"] ;
74 -> 75 ;
76 [label="MonthlyIncome <= 21835.0\ngini = 0.279\nsamples = 197\nvalue = [164, 33]"] ;
74 -> 76 ;
77 [label="gini = 0.0\nsamples = 3\nvalue = [0, 3]"] ;
76 -> 77 ;
78 [label="MonthlyIncome <= 22065.0\ngini = 0.261\nsamples = 194\nvalue = [164, 30]"] ;
76 -> 78 ;
79 [label="gini = 0.0\nsamples = 15\nvalue = [15, 0]"] ;
78 -> 79 ;
80 [label="MonthlyIncome <= 22085.0\ngini = 0.279\nsamples = 179\nvalue = [149, 30]"] ;
78 -> 80 ;
81 [label="gini = 0.0\nsamples = 3\nvalue = [0, 3]"] ;
80 -> 81 ;
82 [label="MonthlyIncome <= 22315.0\ngini = 0.26\nsamples = 176\nvalue = [149, 27]"] ;
80 -> 82 ;
83 [label="gini = 0.0\nsamples = 21\nvalue = [21, 0]"] ;
82 -> 83 ;
84 [label="MonthlyIncome <= 22335.0\ngini = 0.288\nsamples = 155\nvalue = [128, 27]"] ;
82 -> 84 ;
85 [label="gini = 0.0\nsamples = 3\nvalue = [0, 3]"] ;
84 -> 85 ;
86 [label="MonthlyIncome <= 22510.0\ngini = 0.266\nsamples = 152\nvalue = [128, 24]"] ;
84 -> 86 ;
87 [label="MonthlyIncome <= 22410.0\ngini = 0.469\nsamples = 8\nvalue = [5, 3]"] ;
86 -> 87 ;
88 [label="gini = 0.0\nsamples = 5\nvalue = [5, 0]"] ;
87 -> 88 ;
89 [label="gini = 0.0\nsamples = 3\nvalue = [0, 3]"] ;
87 -> 89 ;
90 [label="MonthlyIncome <= 22730.0\ngini = 0.249\nsamples = 144\nvalue = [123, 21]"] ;
86 -> 90 ;
91 [label="gini = 0.0\nsamples = 24\nvalue = [24, 0]"] ;
90 -> 91 ;
92 [label="MonthlyIncome <= 22745.0\ngini = 0.289\nsamples = 120\nvalue = [99, 21]"] ;
90 -> 92 ;
93 [label="gini = 0.0\nsamples = 3\nvalue = [0, 3]"] ;
92 -> 93 ;
94 [label="MonthlyIncome <= 22820.0\ngini = 0.26\nsamples = 117\nvalue = [99, 18]"] ;
92 -> 94 ;
95 [label="gini = 0.0\nsamples = 9\nvalue = [9, 0]"] ;
94 -> 95 ;
96 [label="MonthlyIncome <= 22865.0\ngini = 0.278\nsamples = 108\nvalue = [90, 18]"] ;
94 -> 96 ;
97 [label="gini = 0.0\nsamples = 3\nvalue = [0, 3]"] ;
96 -> 97 ;
98 [label="MonthlyIncome <= 23335.0\ngini = 0.245\nsamples = 105\nvalue = [90, 15]"] ;
96 -> 98 ;
99 [label="MonthlyIncome <= 23215.0\ngini = 0.204\nsamples = 78\nvalue = [69, 9]"] ;
98 -> 99 ;
100 [label="MonthlyIncome <= 23200.0\ngini = 0.278\nsamples = 54\nvalue = [45, 9]"] ;
99 -> 100 ;
101 [label="MonthlyIncome <= 23075.0\ngini = 0.208\nsamples = 51\nvalue = [45, 6]"] ;
100 -> 101 ;
102 [label="MonthlyIncome <= 23065.0\ngini = 0.298\nsamples = 33\nvalue = [27, 6]"] ;
101 -> 102 ;
103 [label="MonthlyIncome <= 22945.0\ngini = 0.18\nsamples = 30\nvalue = [27, 3]"] ;
102 -> 103 ;
104 [label="MonthlyIncome <= 22915.0\ngini = 0.32\nsamples = 15\nvalue = [12, 3]"] ;
103 -> 104 ;
105 [label="gini = 0.0\nsamples = 9\nvalue = [9, 0]"] ;
104 -> 105 ;
106 [label="gini = 0.5\nsamples = 6\nvalue = [3, 3]"] ;
104 -> 106 ;
107 [label="gini = 0.0\nsamples = 15\nvalue = [15, 0]"] ;
103 -> 107 ;
108 [label="gini = 0.0\nsamples = 3\nvalue = [0, 3]"] ;
102 -> 108 ;
109 [label="gini = 0.0\nsamples = 18\nvalue = [18, 0]"] ;
101 -> 109 ;
110 [label="gini = 0.0\nsamples = 3\nvalue = [0, 3]"] ;
100 -> 110 ;
111 [label="gini = 0.0\nsamples = 24\nvalue = [24, 0]"] ;
99 -> 111 ;
112 [label="MonthlyIncome <= 23370.0\ngini = 0.346\nsamples = 27\nvalue = [21, 6]"] ;
98 -> 112 ;
113 [label="gini = 0.0\nsamples = 3\nvalue = [0, 3]"] ;
112 -> 113 ;
114 [label="MonthlyIncome <= 23415.0\ngini = 0.219\nsamples = 24\nvalue = [21, 3]"] ;
112 -> 114 ;
115 [label="gini = 0.0\nsamples = 12\nvalue = [12, 0]"] ;
114 -> 115 ;
116 [label="gini = 0.375\nsamples = 12\nvalue = [9, 3]"] ;
114 -> 116 ;
117 [label="gini = 0.0\nsamples = 77\nvalue = [77, 0]"] ;
49 -> 117 ;
118 [label="MonthlyIncome <= 24175.0\ngini = 0.454\nsamples = 23\nvalue = [15, 8]"] ;
48 -> 118 ;
119 [label="MonthlyIncome <= 24105.0\ngini = 0.48\nsamples = 20\nvalue = [12, 8]"] ;
118 -> 119 ;
120 [label="MonthlyIncome <= 24070.0\ngini = 0.444\nsamples = 18\nvalue = [12, 6]"] ;
119 -> 120 ;
121 [label="MonthlyIncome <= 24050.0\ngini = 0.48\nsamples = 15\nvalue = [9, 6]"] ;
120 -> 121 ;
122 [label="gini = 0.444\nsamples = 9\nvalue = [6, 3]"] ;
121 -> 122 ;
123 [label="gini = 0.5\nsamples = 6\nvalue = [3, 3]"] ;
121 -> 123 ;
124 [label="gini = 0.0\nsamples = 3\nvalue = [3, 0]"] ;
120 -> 124 ;
125 [label="gini = 0.0\nsamples = 2\nvalue = [0, 2]"] ;
119 -> 125 ;
126 [label="gini = 0.0\nsamples = 3\nvalue = [3, 0]"] ;
118 -> 126 ;
127 [label="gini = 0.0\nsamples = 3\nvalue = [0, 3]"] ;
47 -> 127 ;
128 [label="gini = 0.0\nsamples = 48\nvalue = [48, 0]"] ;
46 -> 128 ;
129 [label="MonthlyIncome <= 24700.0\ngini = 0.327\nsamples = 413\nvalue = [328, 85]"] ;
45 -> 129 ;
130 [label="gini = 0.0\nsamples = 3\nvalue = [0, 3]"] ;
129 -> 130 ;
131 [label="MonthlyIncome <= 28355.0\ngini = 0.32\nsamples = 410\nvalue = [328, 82]"] ;
129 -> 131 ;
132 [label="MonthlyIncome <= 27495.0\ngini = 0.304\nsamples = 374\nvalue = [304, 70]"] ;
131 -> 132 ;
133 [label="MonthlyIncome <= 27345.0\ngini = 0.34\nsamples = 286\nvalue = [224, 62]"] ;
132 -> 133 ;
134 [label="MonthlyIncome <= 26605.0\ngini = 0.304\nsamples = 268\nvalue = [218, 50]"] ;
133 -> 134 ;
135 [label="MonthlyIncome <= 26595.0\ngini = 0.349\nsamples = 182\nvalue = [141, 41]"] ;
134 -> 135 ;
136 [label="MonthlyIncome <= 26505.0\ngini = 0.334\nsamples = 179\nvalue = [141, 38]"] ;
135 -> 136 ;
137 [label="MonthlyIncome <= 26160.0\ngini = 0.314\nsamples = 164\nvalue = [132, 32]"] ;
136 -> 137 ;
138 [label="MonthlyIncome <= 26115.0\ngini = 0.353\nsamples = 140\nvalue = [108, 32]"] ;
137 -> 138 ;
139 [label="MonthlyIncome <= 25945.0\ngini = 0.334\nsamples = 137\nvalue = [108, 29]"] ;
138 -> 139 ;
140 [label="MonthlyIncome <= 25925.0\ngini = 0.362\nsamples = 122\nvalue = [93, 29]"] ;
139 -> 140 ;
141 [label="MonthlyIncome <= 25795.0\ngini = 0.342\nsamples = 119\nvalue = [93, 26]"] ;
140 -> 141 ;
142 [label="MonthlyIncome <= 25775.0\ngini = 0.375\nsamples = 104\nvalue = [78, 26]"] ;
141 -> 142 ;
143 [label="MonthlyIncome <= 25560.0\ngini = 0.352\nsamples = 101\nvalue = [78, 23]"] ;
142 -> 143 ;
144 [label="MonthlyIncome <= 25330.0\ngini = 0.271\nsamples = 68\nvalue = [57, 11]"] ;
143 -> 144 ;
145 [label="MonthlyIncome <= 25275.0\ngini = 0.359\nsamples = 47\nvalue = [36, 11]"] ;
144 -> 145 ;
146 [label="MonthlyIncome <= 24785.0\ngini = 0.298\nsamples = 44\nvalue = [36, 8]"] ;
145 -> 146 ;
147 [label="gini = 0.0\nsamples = 9\nvalue = [9, 0]"] ;
146 -> 147 ;
148 [label="MonthlyIncome <= 24875.0\ngini = 0.353\nsamples = 35\nvalue = [27, 8]"] ;
146 -> 148 ;
149 [label="gini = 0.0\nsamples = 2\nvalue = [0, 2]"] ;
148 -> 149 ;
150 [label="MonthlyIncome <= 25005.0\ngini = 0.298\nsamples = 33\nvalue = [27, 6]"] ;
148 -> 150 ;
151 [label="gini = 0.0\nsamples = 9\nvalue = [9, 0]"] ;
150 -> 151 ;
152 [label="MonthlyIncome <= 25035.0\ngini = 0.375\nsamples = 24\nvalue = [18, 6]"] ;
150 -> 152 ;
153 [label="gini = 0.0\nsamples = 3\nvalue = [0, 3]"] ;
152 -> 153 ;
154 [label="MonthlyIncome <= 25160.0\ngini = 0.245\nsamples = 21\nvalue = [18, 3]"] ;
152 -> 154 ;
155 [label="MonthlyIncome <= 25145.0\ngini = 0.375\nsamples = 12\nvalue = [9, 3]"] ;
154 -> 155 ;
156 [label="gini = 0.0\nsamples = 6\nvalue = [6, 0]"] ;
155 -> 156 ;
157 [label="gini = 0.5\nsamples = 6\nvalue = [3, 3]"] ;
155 -> 157 ;
158 [label="gini = 0.0\nsamples = 9\nvalue = [9, 0]"] ;
154 -> 158 ;
159 [label="gini = 0.0\nsamples = 3\nvalue = [0, 3]"] ;
145 -> 159 ;
160 [label="gini = 0.0\nsamples = 21\nvalue = [21, 0]"] ;
144 -> 160 ;
161 [label="MonthlyIncome <= 25625.0\ngini = 0.463\nsamples = 33\nvalue = [21, 12]"] ;
143 -> 161 ;
162 [label="MonthlyIncome <= 25600.0\ngini = 0.375\nsamples = 12\nvalue = [3, 9]"] ;
161 -> 162 ;
163 [label="gini = 0.444\nsamples = 9\nvalue = [3, 6]"] ;
162 -> 163 ;
164 [label="gini = 0.0\nsamples = 3\nvalue = [0, 3]"] ;
162 -> 164 ;
165 [label="MonthlyIncome <= 25715.0\ngini = 0.245\nsamples = 21\nvalue = [18, 3]"] ;
161 -> 165 ;
166 [label="gini = 0.0\nsamples = 15\nvalue = [15, 0]"] ;
165 -> 166 ;
167 [label="MonthlyIncome <= 25740.0\ngini = 0.5\nsamples = 6\nvalue = [3, 3]"] ;
165 -> 167 ;
168 [label="gini = 0.0\nsamples = 3\nvalue = [0, 3]"] ;
167 -> 168 ;
169 [label="gini = 0.0\nsamples = 3\nvalue = [3, 0]"] ;
167 -> 169 ;
170 [label="gini = 0.0\nsamples = 3\nvalue = [0, 3]"] ;
142 -> 170 ;
171 [label="gini = 0.0\nsamples = 15\nvalue = [15, 0]"] ;
141 -> 171 ;
172 [label="gini = 0.0\nsamples = 3\nvalue = [0, 3]"] ;
140 -> 172 ;
173 [label="gini = 0.0\nsamples = 15\nvalue = [15, 0]"] ;
139 -> 173 ;
174 [label="gini = 0.0\nsamples = 3\nvalue = [0, 3]"] ;
138 -> 174 ;
175 [label="gini = 0.0\nsamples = 24\nvalue = [24, 0]"] ;
137 -> 175 ;
176 [label="MonthlyIncome <= 26545.0\ngini = 0.48\nsamples = 15\nvalue = [9, 6]"] ;
136 -> 176 ;
177 [label="gini = 0.0\nsamples = 3\nvalue = [0, 3]"] ;
176 -> 177 ;
178 [label="MonthlyIncome <= 26560.0\ngini = 0.375\nsamples = 12\nvalue = [9, 3]"] ;
176 -> 178 ;
179 [label="gini = 0.0\nsamples = 3\nvalue = [3, 0]"] ;
178 -> 179 ;
180 [label="MonthlyIncome <= 26580.0\ngini = 0.444\nsamples = 9\nvalue = [6, 3]"] ;
178 -> 180 ;
181 [label="gini = 0.5\nsamples = 6\nvalue = [3, 3]"] ;
180 -> 181 ;
182 [label="gini = 0.0\nsamples = 3\nvalue = [3, 0]"] ;
180 -> 182 ;
183 [label="gini = 0.0\nsamples = 3\nvalue = [0, 3]"] ;
135 -> 183 ;
184 [label="MonthlyIncome <= 26935.0\ngini = 0.187\nsamples = 86\nvalue = [77, 9]"] ;
134 -> 184 ;
185 [label="gini = 0.0\nsamples = 36\nvalue = [36, 0]"] ;
184 -> 185 ;
186 [label="MonthlyIncome <= 26945.0\ngini = 0.295\nsamples = 50\nvalue = [41, 9]"] ;
184 -> 186 ;
187 [label="gini = 0.0\nsamples = 3\nvalue = [0, 3]"] ;
186 -> 187 ;
188 [label="MonthlyIncome <= 27065.0\ngini = 0.223\nsamples = 47\nvalue = [41, 6]"] ;
186 -> 188 ;
189 [label="gini = 0.0\nsamples = 21\nvalue = [21, 0]"] ;
188 -> 189 ;
190 [label="MonthlyIncome <= 27100.0\ngini = 0.355\nsamples = 26\nvalue = [20, 6]"] ;
188 -> 190 ;
191 [label="gini = 0.0\nsamples = 3\nvalue = [0, 3]"] ;
190 -> 191 ;
192 [label="MonthlyIncome <= 27215.0\ngini = 0.227\nsamples = 23\nvalue = [20, 3]"] ;
190 -> 192 ;
193 [label="gini = 0.0\nsamples = 14\nvalue = [14, 0]"] ;
192 -> 193 ;
194 [label="MonthlyIncome <= 27240.0\ngini = 0.444\nsamples = 9\nvalue = [6, 3]"] ;
192 -> 194 ;
195 [label="gini = 0.0\nsamples = 3\nvalue = [0, 3]"] ;
194 -> 195 ;
196 [label="gini = 0.0\nsamples = 6\nvalue = [6, 0]"] ;
194 -> 196 ;
197 [label="MonthlyIncome <= 27425.0\ngini = 0.444\nsamples = 18\nvalue = [6, 12]"] ;
133 -> 197 ;
198 [label="MonthlyIncome <= 27415.0\ngini = 0.5\nsamples = 12\nvalue = [6, 6]"] ;
197 -> 198 ;
199 [label="gini = 0.444\nsamples = 9\nvalue = [3, 6]"] ;
198 -> 199 ;
200 [label="gini = 0.0\nsamples = 3\nvalue = [3, 0]"] ;
198 -> 200 ;
201 [label="gini = 0.0\nsamples = 6\nvalue = [0, 6]"] ;
197 -> 201 ;
202 [label="MonthlyIncome <= 28105.0\ngini = 0.165\nsamples = 88\nvalue = [80, 8]"] ;
132 -> 202 ;
203 [label="MonthlyIncome <= 28095.0\ngini = 0.21\nsamples = 67\nvalue = [59, 8]"] ;
202 -> 203 ;
204 [label="MonthlyIncome <= 27920.0\ngini = 0.144\nsamples = 64\nvalue = [59, 5]"] ;
203 -> 204 ;
205 [label="MonthlyIncome <= 27900.0\ngini = 0.201\nsamples = 44\nvalue = [39, 5]"] ;
204 -> 205 ;
206 [label="MonthlyIncome <= 27760.0\ngini = 0.093\nsamples = 41\nvalue = [39, 2]"] ;
205 -> 206 ;
207 [label="MonthlyIncome <= 27735.0\ngini = 0.18\nsamples = 20\nvalue = [18, 2]"] ;
206 -> 207 ;
208 [label="gini = 0.0\nsamples = 18\nvalue = [18, 0]"] ;
207 -> 208 ;
209 [label="gini = 0.0\nsamples = 2\nvalue = [0, 2]"] ;
207 -> 209 ;
210 [label="gini = 0.0\nsamples = 21\nvalue = [21, 0]"] ;
206 -> 210 ;
211 [label="gini = 0.0\nsamples = 3\nvalue = [0, 3]"] ;
205 -> 211 ;
212 [label="gini = 0.0\nsamples = 20\nvalue = [20, 0]"] ;
204 -> 212 ;
213 [label="gini = 0.0\nsamples = 3\nvalue = [0, 3]"] ;
203 -> 213 ;
214 [label="gini = 0.0\nsamples = 21\nvalue = [21, 0]"] ;
202 -> 214 ;
215 [label="MonthlyIncome <= 28365.0\ngini = 0.444\nsamples = 36\nvalue = [24, 12]"] ;
131 -> 215 ;
216 [label="gini = 0.0\nsamples = 3\nvalue = [0, 3]"] ;
215 -> 216 ;
217 [label="MonthlyIncome <= 28410.0\ngini = 0.397\nsamples = 33\nvalue = [24, 9]"] ;
215 -> 217 ;
218 [label="gini = 0.0\nsamples = 6\nvalue = [6, 0]"] ;
217 -> 218 ;
219 [label="MonthlyIncome <= 28475.0\ngini = 0.444\nsamples = 27\nvalue = [18, 9]"] ;
217 -> 219 ;
220 [label="gini = 0.0\nsamples = 3\nvalue = [0, 3]"] ;
219 -> 220 ;
221 [label="MonthlyIncome <= 28545.0\ngini = 0.375\nsamples = 24\nvalue = [18, 6]"] ;
219 -> 221 ;
222 [label="MonthlyIncome <= 28520.0\ngini = 0.5\nsamples = 6\nvalue = [3, 3]"] ;
221 -> 222 ;
223 [label="gini = 0.0\nsamples = 3\nvalue = [3, 0]"] ;
222 -> 223 ;
224 [label="gini = 0.0\nsamples = 3\nvalue = [0, 3]"] ;
222 -> 224 ;
225 [label="MonthlyIncome <= 28605.0\ngini = 0.278\nsamples = 18\nvalue = [15, 3]"] ;
221 -> 225 ;
226 [label="gini = 0.0\nsamples = 9\nvalue = [9, 0]"] ;
225 -> 226 ;
227 [label="MonthlyIncome <= 28625.0\ngini = 0.444\nsamples = 9\nvalue = [6, 3]"] ;
225 -> 227 ;
228 [label="gini = 0.0\nsamples = 3\nvalue = [0, 3]"] ;
227 -> 228 ;
229 [label="gini = 0.0\nsamples = 6\nvalue = [6, 0]"] ;
227 -> 229 ;
230 [label="MonthlyIncome <= 28875.0\ngini = 0.469\nsamples = 24\nvalue = [9, 15]"] ;
44 -> 230 ;
231 [label="gini = 0.0\nsamples = 12\nvalue = [0, 12]"] ;
230 -> 231 ;
232 [label="MonthlyIncome <= 29015.0\ngini = 0.375\nsamples = 12\nvalue = [9, 3]"] ;
230 -> 232 ;
233 [label="gini = 0.0\nsamples = 9\nvalue = [9, 0]"] ;
232 -> 233 ;
234 [label="gini = 0.0\nsamples = 3\nvalue = [0, 3]"] ;
232 -> 234 ;
235 [label="MonthlyIncome <= 29750.0\ngini = 0.249\nsamples = 1369\nvalue = [1169, 200]"] ;
43 -> 235 ;
236 [label="gini = 0.0\nsamples = 66\nvalue = [66, 0]"] ;
235 -> 236 ;
237 [label="MonthlyIncome <= 29765.0\ngini = 0.26\nsamples = 1303\nvalue = [1103, 200]"] ;
235 -> 237 ;
238 [label="gini = 0.0\nsamples = 3\nvalue = [0, 3]"] ;
237 -> 238 ;
239 [label="MonthlyIncome <= 53305.0\ngini = 0.257\nsamples = 1300\nvalue = [1103, 197]"] ;
237 -> 239 ;
240 [label="MonthlyIncome <= 50155.0\ngini = 0.251\nsamples = 1255\nvalue = [1070, 185]"] ;
239 -> 240 ;
241 [label="MonthlyIncome <= 48990.0\ngini = 0.268\nsamples = 1087\nvalue = [914, 173]"] ;
240 -> 241 ;
242 [label="MonthlyIncome <= 48275.0\ngini = 0.245\nsamples = 1023\nvalue = [877, 146]"] ;
241 -> 242 ;
243 [label="MonthlyIncome <= 48155.0\ngini = 0.253\nsamples = 981\nvalue = [835, 146]"] ;
242 -> 243 ;
244 [label="MonthlyIncome <= 45950.0\ngini = 0.25\nsamples = 978\nvalue = [835, 143]"] ;
243 -> 244 ;
245 [label="MonthlyIncome <= 45570.0\ngini = 0.264\nsamples = 838\nvalue = [707, 131]"] ;
244 -> 245 ;
246 [label="MonthlyIncome <= 45225.0\ngini = 0.253\nsamples = 821\nvalue = [699, 122]"] ;
245 -> 246 ;
247 [label="MonthlyIncome <= 45150.0\ngini = 0.26\nsamples = 794\nvalue = [672, 122]"] ;
246 -> 247 ;
248 [label="MonthlyIncome <= 32030.0\ngini = 0.256\nsamples = 791\nvalue = [672, 119]"] ;
247 -> 248 ;
249 [label="MonthlyIncome <= 30870.0\ngini = 0.149\nsamples = 111\nvalue = [102, 9]"] ;
248 -> 249 ;
250 [label="MonthlyIncome <= 30705.0\ngini = 0.236\nsamples = 66\nvalue = [57, 9]"] ;
249 -> 250 ;
251 [label="MonthlyIncome <= 29950.0\ngini = 0.18\nsamples = 60\nvalue = [54, 6]"] ;
250 -> 251 ;
252 [label="gini = 0.0\nsamples = 15\nvalue = [15, 0]"] ;
251 -> 252 ;
253 [label="MonthlyIncome <= 30090.0\ngini = 0.231\nsamples = 45\nvalue = [39, 6]"] ;
251 -> 253 ;
254 [label="gini = 0.5\nsamples = 6\nvalue = [3, 3]"] ;
253 -> 254 ;
255 [label="MonthlyIncome <= 30560.0\ngini = 0.142\nsamples = 39\nvalue = [36, 3]"] ;
253 -> 255 ;
256 [label="gini = 0.0\nsamples = 21\nvalue = [21, 0]"] ;
255 -> 256 ;
257 [label="MonthlyIncome <= 30575.0\ngini = 0.278\nsamples = 18\nvalue = [15, 3]"] ;
255 -> 257 ;
258 [label="gini = 0.0\nsamples = 3\nvalue = [0, 3]"] ;
257 -> 258 ;
259 [label="gini = 0.0\nsamples = 15\nvalue = [15, 0]"] ;
257 -> 259 ;
260 [label="gini = 0.5\nsamples = 6\nvalue = [3, 3]"] ;
250 -> 260 ;
261 [label="gini = 0.0\nsamples = 45\nvalue = [45, 0]"] ;
249 -> 261 ;
262 [label="MonthlyIncome <= 32070.0\ngini = 0.271\nsamples = 680\nvalue = [570, 110]"] ;
248 -> 262 ;
263 [label="gini = 0.0\nsamples = 3\nvalue = [0, 3]"] ;
262 -> 263 ;
264 [label="MonthlyIncome <= 36945.0\ngini = 0.266\nsamples = 677\nvalue = [570, 107]"] ;
262 -> 264 ;
265 [label="MonthlyIncome <= 36890.0\ngini = 0.323\nsamples = 222\nvalue = [177, 45]"] ;
264 -> 265 ;
266 [label="MonthlyIncome <= 34780.0\ngini = 0.281\nsamples = 213\nvalue = [177, 36]"] ;
265 -> 266 ;
267 [label="MonthlyIncome <= 34580.0\ngini = 0.337\nsamples = 126\nvalue = [99, 27]"] ;
266 -> 267 ;
268 [label="MonthlyIncome <= 34430.0\ngini = 0.26\nsamples = 117\nvalue = [99, 18]"] ;
267 -> 268 ;
269 [label="MonthlyIncome <= 34370.0\ngini = 0.298\nsamples = 99\nvalue = [81, 18]"] ;
268 -> 269 ;
270 [label="MonthlyIncome <= 32165.0\ngini = 0.264\nsamples = 96\nvalue = [81, 15]"] ;
269 -> 270 ;
271 [label="MonthlyIncome <= 32115.0\ngini = 0.444\nsamples = 9\nvalue = [6, 3]"] ;
270 -> 271 ;
272 [label="gini = 0.0\nsamples = 6\nvalue = [6, 0]"] ;
271 -> 272 ;
273 [label="gini = 0.0\nsamples = 3\nvalue = [0, 3]"] ;
271 -> 273 ;
274 [label="MonthlyIncome <= 32965.0\ngini = 0.238\nsamples = 87\nvalue = [75, 12]"] ;
270 -> 274 ;
275 [label="gini = 0.0\nsamples = 24\nvalue = [24, 0]"] ;
274 -> 275 ;
276 [label="MonthlyIncome <= 33020.0\ngini = 0.308\nsamples = 63\nvalue = [51, 12]"] ;
274 -> 276 ;
277 [label="gini = 0.0\nsamples = 3\nvalue = [0, 3]"] ;
276 -> 277 ;
278 [label="MonthlyIncome <= 33155.0\ngini = 0.255\nsamples = 60\nvalue = [51, 9]"] ;
276 -> 278 ;
279 [label="MonthlyIncome <= 33110.0\ngini = 0.444\nsamples = 9\nvalue = [6, 3]"] ;
278 -> 279 ;
280 [label="gini = 0.0\nsamples = 6\nvalue = [6, 0]"] ;
279 -> 280 ;
281 [label="gini = 0.0\nsamples = 3\nvalue = [0, 3]"] ;
279 -> 281 ;
282 [label="MonthlyIncome <= 34215.0\ngini = 0.208\nsamples = 51\nvalue = [45, 6]"] ;
278 -> 282 ;
283 [label="MonthlyIncome <= 33765.0\ngini = 0.133\nsamples = 42\nvalue = [39, 3]"] ;
282 -> 283 ;
284 [label="MonthlyIncome <= 33755.0\ngini = 0.278\nsamples = 18\nvalue = [15, 3]"] ;
283 -> 284 ;
285 [label="gini = 0.0\nsamples = 15\nvalue = [15, 0]"] ;
284 -> 285 ;
286 [label="gini = 0.0\nsamples = 3\nvalue = [0, 3]"] ;
284 -> 286 ;
287 [label="gini = 0.0\nsamples = 24\nvalue = [24, 0]"] ;
283 -> 287 ;
288 [label="MonthlyIncome <= 34235.0\ngini = 0.444\nsamples = 9\nvalue = [6, 3]"] ;
282 -> 288 ;
289 [label="gini = 0.0\nsamples = 3\nvalue = [0, 3]"] ;
288 -> 289 ;
290 [label="gini = 0.0\nsamples = 6\nvalue = [6, 0]"] ;
288 -> 290 ;
291 [label="gini = 0.0\nsamples = 3\nvalue = [0, 3]"] ;
269 -> 291 ;
292 [label="gini = 0.0\nsamples = 18\nvalue = [18, 0]"] ;
268 -> 292 ;
293 [label="gini = 0.0\nsamples = 9\nvalue = [0, 9]"] ;
267 -> 293 ;
294 [label="MonthlyIncome <= 36310.0\ngini = 0.185\nsamples = 87\nvalue = [78, 9]"] ;
266 -> 294 ;
295 [label="MonthlyIncome <= 35785.0\ngini = 0.087\nsamples = 66\nvalue = [63, 3]"] ;
294 -> 295 ;
296 [label="gini = 0.0\nsamples = 42\nvalue = [42, 0]"] ;
295 -> 296 ;
297 [label="MonthlyIncome <= 35795.0\ngini = 0.219\nsamples = 24\nvalue = [21, 3]"] ;
295 -> 297 ;
298 [label="gini = 0.0\nsamples = 3\nvalue = [0, 3]"] ;
297 -> 298 ;
299 [label="gini = 0.0\nsamples = 21\nvalue = [21, 0]"] ;
297 -> 299 ;
300 [label="MonthlyIncome <= 36395.0\ngini = 0.408\nsamples = 21\nvalue = [15, 6]"] ;
294 -> 300 ;
301 [label="gini = 0.0\nsamples = 3\nvalue = [0, 3]"] ;
300 -> 301 ;
302 [label="MonthlyIncome <= 36710.0\ngini = 0.278\nsamples = 18\nvalue = [15, 3]"] ;
300 -> 302 ;
303 [label="gini = 0.0\nsamples = 9\nvalue = [9, 0]"] ;
302 -> 303 ;
304 [label="MonthlyIncome <= 36770.0\ngini = 0.444\nsamples = 9\nvalue = [6, 3]"] ;
302 -> 304 ;
305 [label="gini = 0.0\nsamples = 3\nvalue = [0, 3]"] ;
304 -> 305 ;
306 [label="gini = 0.0\nsamples = 6\nvalue = [6, 0]"] ;
304 -> 306 ;
307 [label="gini = 0.0\nsamples = 9\nvalue = [0, 9]"] ;
265 -> 307 ;
308 [label="MonthlyIncome <= 39945.0\ngini = 0.235\nsamples = 455\nvalue = [393, 62]"] ;
264 -> 308 ;
309 [label="MonthlyIncome <= 39195.0\ngini = 0.091\nsamples = 125\nvalue = [119, 6]"] ;
308 -> 309 ;
310 [label="MonthlyIncome <= 39180.0\ngini = 0.13\nsamples = 86\nvalue = [80, 6]"] ;
309 -> 310 ;
311 [label="MonthlyIncome <= 37985.0\ngini = 0.07\nsamples = 83\nvalue = [80, 3]"] ;
310 -> 311 ;
312 [label="MonthlyIncome <= 37825.0\ngini = 0.136\nsamples = 41\nvalue = [38, 3]"] ;
311 -> 312 ;
313 [label="gini = 0.0\nsamples = 38\nvalue = [38, 0]"] ;
312 -> 313 ;
314 [label="gini = 0.0\nsamples = 3\nvalue = [0, 3]"] ;
312 -> 314 ;
315 [label="gini = 0.0\nsamples = 42\nvalue = [42, 0]"] ;
311 -> 315 ;
316 [label="gini = 0.0\nsamples = 3\nvalue = [0, 3]"] ;
310 -> 316 ;
317 [label="gini = 0.0\nsamples = 39\nvalue = [39, 0]"] ;
309 -> 317 ;
318 [label="MonthlyIncome <= 40060.0\ngini = 0.282\nsamples = 330\nvalue = [274, 56]"] ;
308 -> 318 ;
319 [label="gini = 0.0\nsamples = 6\nvalue = [0, 6]"] ;
318 -> 319 ;
320 [label="MonthlyIncome <= 40585.0\ngini = 0.261\nsamples = 324\nvalue = [274, 50]"] ;
318 -> 320 ;
321 [label="gini = 0.0\nsamples = 36\nvalue = [36, 0]"] ;
320 -> 321 ;
322 [label="MonthlyIncome <= 40675.0\ngini = 0.287\nsamples = 288\nvalue = [238, 50]"] ;
320 -> 322 ;
323 [label="gini = 0.0\nsamples = 3\nvalue = [0, 3]"] ;
322 -> 323 ;
324 [label="MonthlyIncome <= 44370.0\ngini = 0.275\nsamples = 285\nvalue = [238, 47]"] ;
322 -> 324 ;
325 [label="MonthlyIncome <= 44210.0\ngini = 0.304\nsamples = 235\nvalue = [191, 44]"] ;
324 -> 325 ;
326 [label="MonthlyIncome <= 43000.0\ngini = 0.27\nsamples = 224\nvalue = [188, 36]"] ;
325 -> 326 ;
327 [label="MonthlyIncome <= 41975.0\ngini = 0.219\nsamples = 144\nvalue = [126, 18]"] ;
326 -> 327 ;
328 [label="MonthlyIncome <= 41790.0\ngini = 0.311\nsamples = 78\nvalue = [63, 15]"] ;
327 -> 328 ;
329 [label="MonthlyIncome <= 40795.0\ngini = 0.18\nsamples = 60\nvalue = [54, 6]"] ;
328 -> 329 ;
330 [label="MonthlyIncome <= 40745.0\ngini = 0.444\nsamples = 9\nvalue = [6, 3]"] ;
329 -> 330 ;
331 [label="gini = 0.0\nsamples = 6\nvalue = [6, 0]"] ;
330 -> 331 ;
332 [label="gini = 0.0\nsamples = 3\nvalue = [0, 3]"] ;
330 -> 332 ;
333 [label="MonthlyIncome <= 41375.0\ngini = 0.111\nsamples = 51\nvalue = [48, 3]"] ;
329 -> 333 ;
334 [label="gini = 0.0\nsamples = 30\nvalue = [30, 0]"] ;
333 -> 334 ;
335 [label="MonthlyIncome <= 41500.0\ngini = 0.245\nsamples = 21\nvalue = [18, 3]"] ;
333 -> 335 ;
336 [label="gini = 0.5\nsamples = 6\nvalue = [3, 3]"] ;
335 -> 336 ;
337 [label="gini = 0.0\nsamples = 15\nvalue = [15, 0]"] ;
335 -> 337 ;
338 [label="MonthlyIncome <= 41910.0\ngini = 0.5\nsamples = 18\nvalue = [9, 9]"] ;
328 -> 338 ;
339 [label="gini = 0.0\nsamples = 6\nvalue = [0, 6]"] ;
338 -> 339 ;
340 [label="MonthlyIncome <= 41955.0\ngini = 0.375\nsamples = 12\nvalue = [9, 3]"] ;
338 -> 340 ;
341 [label="gini = 0.0\nsamples = 6\nvalue = [6, 0]"] ;
340 -> 341 ;
342 [label="gini = 0.5\nsamples = 6\nvalue = [3, 3]"] ;
340 -> 342 ;
343 [label="MonthlyIncome <= 42780.0\ngini = 0.087\nsamples = 66\nvalue = [63, 3]"] ;
327 -> 343 ;
344 [label="gini = 0.0\nsamples = 48\nvalue = [48, 0]"] ;
343 -> 344 ;
345 [label="MonthlyIncome <= 42845.0\ngini = 0.278\nsamples = 18\nvalue = [15, 3]"] ;
343 -> 345 ;
346 [label="gini = 0.5\nsamples = 6\nvalue = [3, 3]"] ;
345 -> 346 ;
347 [label="gini = 0.0\nsamples = 12\nvalue = [12, 0]"] ;
345 -> 347 ;
348 [label="MonthlyIncome <= 43195.0\ngini = 0.349\nsamples = 80\nvalue = [62, 18]"] ;
326 -> 348 ;
349 [label="MonthlyIncome <= 43145.0\ngini = 0.444\nsamples = 18\nvalue = [6, 12]"] ;
348 -> 349 ;
350 [label="MonthlyIncome <= 43040.0\ngini = 0.5\nsamples = 12\nvalue = [6, 6]"] ;
349 -> 350 ;
351 [label="gini = 0.0\nsamples = 3\nvalue = [0, 3]"] ;
350 -> 351 ;
352 [label="MonthlyIncome <= 43090.0\ngini = 0.444\nsamples = 9\nvalue = [6, 3]"] ;
350 -> 352 ;
353 [label="gini = 0.5\nsamples = 6\nvalue = [3, 3]"] ;
352 -> 353 ;
354 [label="gini = 0.0\nsamples = 3\nvalue = [3, 0]"] ;
352 -> 354 ;
355 [label="gini = 0.0\nsamples = 6\nvalue = [0, 6]"] ;
349 -> 355 ;
356 [label="MonthlyIncome <= 43790.0\ngini = 0.175\nsamples = 62\nvalue = [56, 6]"] ;
348 -> 356 ;
357 [label="gini = 0.0\nsamples = 35\nvalue = [35, 0]"] ;
356 -> 357 ;
358 [label="MonthlyIncome <= 43890.0\ngini = 0.346\nsamples = 27\nvalue = [21, 6]"] ;
356 -> 358 ;
359 [label="MonthlyIncome <= 43815.0\ngini = 0.444\nsamples = 9\nvalue = [3, 6]"] ;
358 -> 359 ;
360 [label="gini = 0.0\nsamples = 3\nvalue = [0, 3]"] ;
359 -> 360 ;
361 [label="MonthlyIncome <= 43835.0\ngini = 0.5\nsamples = 6\nvalue = [3, 3]"] ;
359 -> 361 ;
362 [label="gini = 0.0\nsamples = 3\nvalue = [3, 0]"] ;
361 -> 362 ;
363 [label="gini = 0.0\nsamples = 3\nvalue = [0, 3]"] ;
361 -> 363 ;
364 [label="gini = 0.0\nsamples = 18\nvalue = [18, 0]"] ;
358 -> 364 ;
365 [label="MonthlyIncome <= 44245.0\ngini = 0.397\nsamples = 11\nvalue = [3, 8]"] ;
325 -> 365 ;
366 [label="gini = 0.0\nsamples = 6\nvalue = [0, 6]"] ;
365 -> 366 ;
367 [label="MonthlyIncome <= 44295.0\ngini = 0.48\nsamples = 5\nvalue = [3, 2]"] ;
365 -> 367 ;
368 [label="gini = 0.0\nsamples = 3\nvalue = [3, 0]"] ;
367 -> 368 ;
369 [label="gini = 0.0\nsamples = 2\nvalue = [0, 2]"] ;
367 -> 369 ;
370 [label="MonthlyIncome <= 44815.0\ngini = 0.113\nsamples = 50\nvalue = [47, 3]"] ;
324 -> 370 ;
371 [label="gini = 0.0\nsamples = 29\nvalue = [29, 0]"] ;
370 -> 371 ;
372 [label="MonthlyIncome <= 44860.0\ngini = 0.245\nsamples = 21\nvalue = [18, 3]"] ;
370 -> 372 ;
373 [label="gini = 0.0\nsamples = 3\nvalue = [0, 3]"] ;
372 -> 373 ;
374 [label="gini = 0.0\nsamples = 18\nvalue = [18, 0]"] ;
372 -> 374 ;
375 [label="gini = 0.0\nsamples = 3\nvalue = [0, 3]"] ;
247 -> 375 ;
376 [label="gini = 0.0\nsamples = 27\nvalue = [27, 0]"] ;
246 -> 376 ;
377 [label="MonthlyIncome <= 45635.0\ngini = 0.498\nsamples = 17\nvalue = [8, 9]"] ;
245 -> 377 ;
378 [label="gini = 0.0\nsamples = 6\nvalue = [0, 6]"] ;
377 -> 378 ;
379 [label="MonthlyIncome <= 45860.0\ngini = 0.397\nsamples = 11\nvalue = [8, 3]"] ;
377 -> 379 ;
380 [label="gini = 0.0\nsamples = 8\nvalue = [8, 0]"] ;
379 -> 380 ;
381 [label="gini = 0.0\nsamples = 3\nvalue = [0, 3]"] ;
379 -> 381 ;
382 [label="MonthlyIncome <= 47670.0\ngini = 0.157\nsamples = 140\nvalue = [128, 12]"] ;
244 -> 382 ;
383 [label="MonthlyIncome <= 46810.0\ngini = 0.057\nsamples = 102\nvalue = [99, 3]"] ;
382 -> 383 ;
384 [label="MonthlyIncome <= 46790.0\ngini = 0.111\nsamples = 51\nvalue = [48, 3]"] ;
383 -> 384 ;
385 [label="gini = 0.0\nsamples = 48\nvalue = [48, 0]"] ;
384 -> 385 ;
386 [label="gini = 0.0\nsamples = 3\nvalue = [0, 3]"] ;
384 -> 386 ;
387 [label="gini = 0.0\nsamples = 51\nvalue = [51, 0]"] ;
383 -> 387 ;
388 [label="MonthlyIncome <= 47760.0\ngini = 0.361\nsamples = 38\nvalue = [29, 9]"] ;
382 -> 388 ;
389 [label="MonthlyIncome <= 47725.0\ngini = 0.375\nsamples = 12\nvalue = [3, 9]"] ;
388 -> 389 ;
390 [label="MonthlyIncome <= 47695.0\ngini = 0.5\nsamples = 6\nvalue = [3, 3]"] ;
389 -> 390 ;
391 [label="gini = 0.0\nsamples = 3\nvalue = [0, 3]"] ;
390 -> 391 ;
392 [label="gini = 0.0\nsamples = 3\nvalue = [3, 0]"] ;
390 -> 392 ;
393 [label="gini = 0.0\nsamples = 6\nvalue = [0, 6]"] ;
389 -> 393 ;
394 [label="gini = 0.0\nsamples = 26\nvalue = [26, 0]"] ;
388 -> 394 ;
395 [label="gini = 0.0\nsamples = 3\nvalue = [0, 3]"] ;
243 -> 395 ;
396 [label="gini = 0.0\nsamples = 42\nvalue = [42, 0]"] ;
242 -> 396 ;
397 [label="MonthlyIncome <= 49880.0\ngini = 0.488\nsamples = 64\nvalue = [37, 27]"] ;
241 -> 397 ;
398 [label="MonthlyIncome <= 49685.0\ngini = 0.5\nsamples = 47\nvalue = [23, 24]"] ;
397 -> 398 ;
399 [label="MonthlyIncome <= 49035.0\ngini = 0.493\nsamples = 41\nvalue = [23, 18]"] ;
398 -> 399 ;
400 [label="gini = 0.0\nsamples = 3\nvalue = [0, 3]"] ;
399 -> 400 ;
401 [label="MonthlyIncome <= 49455.0\ngini = 0.478\nsamples = 38\nvalue = [23, 15]"] ;
399 -> 401 ;
402 [label="MonthlyIncome <= 49385.0\ngini = 0.386\nsamples = 23\nvalue = [17, 6]"] ;
401 -> 402 ;
403 [label="MonthlyIncome <= 49075.0\ngini = 0.457\nsamples = 17\nvalue = [11, 6]"] ;
402 -> 403 ;
404 [label="gini = 0.0\nsamples = 5\nvalue = [5, 0]"] ;
403 -> 404 ;
405 [label="MonthlyIncome <= 49190.0\ngini = 0.5\nsamples = 12\nvalue = [6, 6]"] ;
403 -> 405 ;
406 [label="gini = 0.0\nsamples = 3\nvalue = [0, 3]"] ;
405 -> 406 ;
407 [label="MonthlyIncome <= 49330.0\ngini = 0.444\nsamples = 9\nvalue = [6, 3]"] ;
405 -> 407 ;
408 [label="gini = 0.0\nsamples = 3\nvalue = [3, 0]"] ;
407 -> 408 ;
409 [label="gini = 0.5\nsamples = 6\nvalue = [3, 3]"] ;
407 -> 409 ;
410 [label="gini = 0.0\nsamples = 6\nvalue = [6, 0]"] ;
402 -> 410 ;
411 [label="MonthlyIncome <= 49615.0\ngini = 0.48\nsamples = 15\nvalue = [6, 9]"] ;
401 -> 411 ;
412 [label="gini = 0.0\nsamples = 6\nvalue = [0, 6]"] ;
411 -> 412 ;
413 [label="MonthlyIncome <= 49655.0\ngini = 0.444\nsamples = 9\nvalue = [6, 3]"] ;
411 -> 413 ;
414 [label="gini = 0.0\nsamples = 3\nvalue = [3, 0]"] ;
413 -> 414 ;
415 [label="gini = 0.5\nsamples = 6\nvalue = [3, 3]"] ;
413 -> 415 ;
416 [label="gini = 0.0\nsamples = 6\nvalue = [0, 6]"] ;
398 -> 416 ;
417 [label="MonthlyIncome <= 50080.0\ngini = 0.291\nsamples = 17\nvalue = [14, 3]"] ;
397 -> 417 ;
418 [label="gini = 0.0\nsamples = 14\nvalue = [14, 0]"] ;
417 -> 418 ;
419 [label="gini = 0.0\nsamples = 3\nvalue = [0, 3]"] ;
417 -> 419 ;
420 [label="MonthlyIncome <= 52150.0\ngini = 0.133\nsamples = 168\nvalue = [156, 12]"] ;
240 -> 420 ;
421 [label="MonthlyIncome <= 51390.0\ngini = 0.059\nsamples = 99\nvalue = [96, 3]"] ;
420 -> 421 ;
422 [label="gini = 0.0\nsamples = 54\nvalue = [54, 0]"] ;
421 -> 422 ;
423 [label="MonthlyIncome <= 51490.0\ngini = 0.124\nsamples = 45\nvalue = [42, 3]"] ;
421 -> 423 ;
424 [label="gini = 0.0\nsamples = 3\nvalue = [0, 3]"] ;
423 -> 424 ;
425 [label="gini = 0.0\nsamples = 42\nvalue = [42, 0]"] ;
423 -> 425 ;
426 [label="MonthlyIncome <= 52240.0\ngini = 0.227\nsamples = 69\nvalue = [60, 9]"] ;
420 -> 426 ;
427 [label="gini = 0.0\nsamples = 3\nvalue = [0, 3]"] ;
426 -> 427 ;
428 [label="MonthlyIncome <= 53065.0\ngini = 0.165\nsamples = 66\nvalue = [60, 6]"] ;
426 -> 428 ;
429 [label="MonthlyIncome <= 53025.0\ngini = 0.208\nsamples = 51\nvalue = [45, 6]"] ;
428 -> 429 ;
430 [label="MonthlyIncome <= 52435.0\ngini = 0.124\nsamples = 45\nvalue = [42, 3]"] ;
429 -> 430 ;
431 [label="MonthlyIncome <= 52375.0\ngini = 0.278\nsamples = 18\nvalue = [15, 3]"] ;
430 -> 431 ;
432 [label="gini = 0.0\nsamples = 12\nvalue = [12, 0]"] ;
431 -> 432 ;
433 [label="gini = 0.5\nsamples = 6\nvalue = [3, 3]"] ;
431 -> 433 ;
434 [label="gini = 0.0\nsamples = 27\nvalue = [27, 0]"] ;
430 -> 434 ;
435 [label="gini = 0.5\nsamples = 6\nvalue = [3, 3]"] ;
429 -> 435 ;
436 [label="gini = 0.0\nsamples = 15\nvalue = [15, 0]"] ;
428 -> 436 ;
437 [label="MonthlyIncome <= 53400.0\ngini = 0.391\nsamples = 45\nvalue = [33, 12]"] ;
239 -> 437 ;
438 [label="gini = 0.0\nsamples = 6\nvalue = [0, 6]"] ;
437 -> 438 ;
439 [label="MonthlyIncome <= 53745.0\ngini = 0.26\nsamples = 39\nvalue = [33, 6]"] ;
437 -> 439 ;
440 [label="MonthlyIncome <= 53705.0\ngini = 0.375\nsamples = 24\nvalue = [18, 6]"] ;
439 -> 440 ;
441 [label="MonthlyIncome <= 53465.0\ngini = 0.245\nsamples = 21\nvalue = [18, 3]"] ;
440 -> 441 ;
442 [label="gini = 0.0\nsamples = 12\nvalue = [12, 0]"] ;
441 -> 442 ;
443 [label="MonthlyIncome <= 53550.0\ngini = 0.444\nsamples = 9\nvalue = [6, 3]"] ;
441 -> 443 ;
444 [label="gini = 0.0\nsamples = 3\nvalue = [0, 3]"] ;
443 -> 444 ;
445 [label="gini = 0.0\nsamples = 6\nvalue = [6, 0]"] ;
443 -> 445 ;
446 [label="gini = 0.0\nsamples = 3\nvalue = [0, 3]"] ;
440 -> 446 ;
447 [label="gini = 0.0\nsamples = 15\nvalue = [15, 0]"] ;
439 -> 447 ;
448 [label="gini = 0.0\nsamples = 3\nvalue = [0, 3]"] ;
6 -> 448 ;
449 [label="gini = 0.0\nsamples = 50\nvalue = [50, 0]"] ;
5 -> 449 ;
450 [label="MonthlyIncome <= 56735.0\ngini = 0.327\nsamples = 680\nvalue = [540, 140]"] ;
4 -> 450 ;
451 [label="MonthlyIncome <= 56110.0\ngini = 0.461\nsamples = 89\nvalue = [57, 32]"] ;
450 -> 451 ;
452 [label="MonthlyIncome <= 54725.0\ngini = 0.405\nsamples = 71\nvalue = [51, 20]"] ;
451 -> 452 ;
453 [label="gini = 0.0\nsamples = 3\nvalue = [0, 3]"] ;
452 -> 453 ;
454 [label="MonthlyIncome <= 55695.0\ngini = 0.375\nsamples = 68\nvalue = [51, 17]"] ;
452 -> 454 ;
455 [label="MonthlyIncome <= 55495.0\ngini = 0.436\nsamples = 53\nvalue = [36, 17]"] ;
454 -> 455 ;
456 [label="MonthlyIncome <= 54865.0\ngini = 0.332\nsamples = 38\nvalue = [30, 8]"] ;
455 -> 456 ;
457 [label="MonthlyIncome <= 54790.0\ngini = 0.454\nsamples = 23\nvalue = [15, 8]"] ;
456 -> 457 ;
458 [label="gini = 0.0\nsamples = 9\nvalue = [9, 0]"] ;
457 -> 458 ;
459 [label="MonthlyIncome <= 54830.0\ngini = 0.49\nsamples = 14\nvalue = [6, 8]"] ;
457 -> 459 ;
460 [label="gini = 0.0\nsamples = 3\nvalue = [0, 3]"] ;
459 -> 460 ;
461 [label="MonthlyIncome <= 54855.0\ngini = 0.496\nsamples = 11\nvalue = [6, 5]"] ;
459 -> 461 ;
462 [label="MonthlyIncome <= 54845.0\ngini = 0.375\nsamples = 8\nvalue = [6, 2]"] ;
461 -> 462 ;
463 [label="gini = 0.48\nsamples = 5\nvalue = [3, 2]"] ;
462 -> 463 ;
464 [label="gini = 0.0\nsamples = 3\nvalue = [3, 0]"] ;
462 -> 464 ;
465 [label="gini = 0.0\nsamples = 3\nvalue = [0, 3]"] ;
461 -> 465 ;
466 [label="gini = 0.0\nsamples = 15\nvalue = [15, 0]"] ;
456 -> 466 ;
467 [label="MonthlyIncome <= 55615.0\ngini = 0.48\nsamples = 15\nvalue = [6, 9]"] ;
455 -> 467 ;
468 [label="gini = 0.5\nsamples = 6\nvalue = [3, 3]"] ;
467 -> 468 ;
469 [label="gini = 0.444\nsamples = 9\nvalue = [3, 6]"] ;
467 -> 469 ;
470 [label="gini = 0.0\nsamples = 15\nvalue = [15, 0]"] ;
454 -> 470 ;
471 [label="MonthlyIncome <= 56605.0\ngini = 0.444\nsamples = 18\nvalue = [6, 12]"] ;
451 -> 471 ;
472 [label="gini = 0.0\nsamples = 9\nvalue = [0, 9]"] ;
471 -> 472 ;
473 [label="MonthlyIncome <= 56695.0\ngini = 0.444\nsamples = 9\nvalue = [6, 3]"] ;
471 -> 473 ;
474 [label="gini = 0.0\nsamples = 6\nvalue = [6, 0]"] ;
473 -> 474 ;
475 [label="gini = 0.0\nsamples = 3\nvalue = [0, 3]"] ;
473 -> 475 ;
476 [label="MonthlyIncome <= 75360.0\ngini = 0.299\nsamples = 591\nvalue = [483, 108]"] ;
450 -> 476 ;
477 [label="MonthlyIncome <= 75005.0\ngini = 0.31\nsamples = 564\nvalue = [456, 108]"] ;
476 -> 477 ;
478 [label="MonthlyIncome <= 71415.0\ngini = 0.299\nsamples = 558\nvalue = [456, 102]"] ;
477 -> 478 ;
479 [label="MonthlyIncome <= 70885.0\ngini = 0.314\nsamples = 508\nvalue = [409, 99]"] ;
478 -> 479 ;
480 [label="MonthlyIncome <= 68575.0\ngini = 0.297\nsamples = 496\nvalue = [406, 90]"] ;
479 -> 480 ;
481 [label="MonthlyIncome <= 68530.0\ngini = 0.316\nsamples = 457\nvalue = [367, 90]"] ;
480 -> 481 ;
482 [label="MonthlyIncome <= 66950.0\ngini = 0.31\nsamples = 454\nvalue = [367, 87]"] ;
481 -> 482 ;
483 [label="MonthlyIncome <= 63480.0\ngini = 0.291\nsamples = 391\nvalue = [322, 69]"] ;
482 -> 483 ;
484 [label="MonthlyIncome <= 59155.0\ngini = 0.341\nsamples = 248\nvalue = [194, 54]"] ;
483 -> 484 ;
485 [label="MonthlyIncome <= 58205.0\ngini = 0.219\nsamples = 96\nvalue = [84, 12]"] ;
484 -> 485 ;
486 [label="MonthlyIncome <= 58120.0\ngini = 0.278\nsamples = 72\nvalue = [60, 12]"] ;
485 -> 486 ;
487 [label="MonthlyIncome <= 57735.0\ngini = 0.227\nsamples = 69\nvalue = [60, 9]"] ;
486 -> 487 ;
488 [label="MonthlyIncome <= 57635.0\ngini = 0.18\nsamples = 60\nvalue = [54, 6]"] ;
487 -> 488 ;
489 [label="MonthlyIncome <= 57545.0\ngini = 0.245\nsamples = 42\nvalue = [36, 6]"] ;
488 -> 489 ;
490 [label="MonthlyIncome <= 57015.0\ngini = 0.142\nsamples = 39\nvalue = [36, 3]"] ;
489 -> 490 ;
491 [label="MonthlyIncome <= 56840.0\ngini = 0.32\nsamples = 15\nvalue = [12, 3]"] ;
490 -> 491 ;
492 [label="gini = 0.0\nsamples = 12\nvalue = [12, 0]"] ;
491 -> 492 ;
493 [label="gini = 0.0\nsamples = 3\nvalue = [0, 3]"] ;
491 -> 493 ;
494 [label="gini = 0.0\nsamples = 24\nvalue = [24, 0]"] ;
490 -> 494 ;
495 [label="gini = 0.0\nsamples = 3\nvalue = [0, 3]"] ;
489 -> 495 ;
496 [label="gini = 0.0\nsamples = 18\nvalue = [18, 0]"] ;
488 -> 496 ;
497 [label="MonthlyIncome <= 57925.0\ngini = 0.444\nsamples = 9\nvalue = [6, 3]"] ;
487 -> 497 ;
498 [label="gini = 0.0\nsamples = 3\nvalue = [0, 3]"] ;
497 -> 498 ;
499 [label="gini = 0.0\nsamples = 6\nvalue = [6, 0]"] ;
497 -> 499 ;
500 [label="gini = 0.0\nsamples = 3\nvalue = [0, 3]"] ;
486 -> 500 ;
501 [label="gini = 0.0\nsamples = 24\nvalue = [24, 0]"] ;
485 -> 501 ;
502 [label="MonthlyIncome <= 60110.0\ngini = 0.4\nsamples = 152\nvalue = [110, 42]"] ;
484 -> 502 ;
503 [label="MonthlyIncome <= 59770.0\ngini = 0.499\nsamples = 29\nvalue = [14, 15]"] ;
502 -> 503 ;
504 [label="MonthlyIncome <= 59245.0\ngini = 0.457\nsamples = 17\nvalue = [11, 6]"] ;
503 -> 504 ;
505 [label="gini = 0.0\nsamples = 3\nvalue = [0, 3]"] ;
504 -> 505 ;
506 [label="MonthlyIncome <= 59485.0\ngini = 0.337\nsamples = 14\nvalue = [11, 3]"] ;
504 -> 506 ;
507 [label="gini = 0.0\nsamples = 6\nvalue = [6, 0]"] ;
506 -> 507 ;
508 [label="MonthlyIncome <= 59625.0\ngini = 0.469\nsamples = 8\nvalue = [5, 3]"] ;
506 -> 508 ;
509 [label="gini = 0.0\nsamples = 3\nvalue = [0, 3]"] ;
508 -> 509 ;
510 [label="gini = 0.0\nsamples = 5\nvalue = [5, 0]"] ;
508 -> 510 ;
511 [label="MonthlyIncome <= 59890.0\ngini = 0.375\nsamples = 12\nvalue = [3, 9]"] ;
503 -> 511 ;
512 [label="gini = 0.0\nsamples = 6\nvalue = [0, 6]"] ;
511 -> 512 ;
513 [label="gini = 0.5\nsamples = 6\nvalue = [3, 3]"] ;
511 -> 513 ;
514 [label="MonthlyIncome <= 61565.0\ngini = 0.343\nsamples = 123\nvalue = [96, 27]"] ;
502 -> 514 ;
515 [label="MonthlyIncome <= 61190.0\ngini = 0.117\nsamples = 48\nvalue = [45, 3]"] ;
514 -> 515 ;
516 [label="MonthlyIncome <= 61045.0\ngini = 0.245\nsamples = 21\nvalue = [18, 3]"] ;
515 -> 516 ;
517 [label="gini = 0.0\nsamples = 18\nvalue = [18, 0]"] ;
516 -> 517 ;
518 [label="gini = 0.0\nsamples = 3\nvalue = [0, 3]"] ;
516 -> 518 ;
519 [label="gini = 0.0\nsamples = 27\nvalue = [27, 0]"] ;
515 -> 519 ;
520 [label="MonthlyIncome <= 61905.0\ngini = 0.435\nsamples = 75\nvalue = [51, 24]"] ;
514 -> 520 ;
521 [label="MonthlyIncome <= 61755.0\ngini = 0.48\nsamples = 15\nvalue = [6, 9]"] ;
520 -> 521 ;
522 [label="MonthlyIncome <= 61670.0\ngini = 0.444\nsamples = 9\nvalue = [6, 3]"] ;
521 -> 522 ;
523 [label="gini = 0.5\nsamples = 6\nvalue = [3, 3]"] ;
522 -> 523 ;
524 [label="gini = 0.0\nsamples = 3\nvalue = [3, 0]"] ;
522 -> 524 ;
525 [label="gini = 0.0\nsamples = 6\nvalue = [0, 6]"] ;
521 -> 525 ;
526 [label="MonthlyIncome <= 62665.0\ngini = 0.375\nsamples = 60\nvalue = [45, 15]"] ;
520 -> 526 ;
527 [label="MonthlyIncome <= 62170.0\ngini = 0.219\nsamples = 24\nvalue = [21, 3]"] ;
526 -> 527 ;
528 [label="MonthlyIncome <= 62115.0\ngini = 0.444\nsamples = 9\nvalue = [6, 3]"] ;
527 -> 528 ;
529 [label="gini = 0.0\nsamples = 6\nvalue = [6, 0]"] ;
528 -> 529 ;
530 [label="gini = 0.0\nsamples = 3\nvalue = [0, 3]"] ;
528 -> 530 ;
531 [label="gini = 0.0\nsamples = 15\nvalue = [15, 0]"] ;
527 -> 531 ;
532 [label="MonthlyIncome <= 62910.0\ngini = 0.444\nsamples = 36\nvalue = [24, 12]"] ;
526 -> 532 ;
533 [label="MonthlyIncome <= 62810.0\ngini = 0.5\nsamples = 12\nvalue = [6, 6]"] ;
532 -> 533 ;
534 [label="MonthlyIncome <= 62730.0\ngini = 0.444\nsamples = 9\nvalue = [6, 3]"] ;
533 -> 534 ;
535 [label="gini = 0.5\nsamples = 6\nvalue = [3, 3]"] ;
534 -> 535 ;
536 [label="gini = 0.0\nsamples = 3\nvalue = [3, 0]"] ;
534 -> 536 ;
537 [label="gini = 0.0\nsamples = 3\nvalue = [0, 3]"] ;
533 -> 537 ;
538 [label="MonthlyIncome <= 63140.0\ngini = 0.375\nsamples = 24\nvalue = [18, 6]"] ;
532 -> 538 ;
539 [label="gini = 0.0\nsamples = 6\nvalue = [6, 0]"] ;
538 -> 539 ;
540 [label="MonthlyIncome <= 63225.0\ngini = 0.444\nsamples = 18\nvalue = [12, 6]"] ;
538 -> 540 ;
541 [label="gini = 0.0\nsamples = 3\nvalue = [0, 3]"] ;
540 -> 541 ;
542 [label="MonthlyIncome <= 63405.0\ngini = 0.32\nsamples = 15\nvalue = [12, 3]"] ;
540 -> 542 ;
543 [label="gini = 0.0\nsamples = 6\nvalue = [6, 0]"] ;
542 -> 543 ;
544 [label="gini = 0.444\nsamples = 9\nvalue = [6, 3]"] ;
542 -> 544 ;
545 [label="MonthlyIncome <= 63945.0\ngini = 0.188\nsamples = 143\nvalue = [128, 15]"] ;
483 -> 545 ;
546 [label="gini = 0.0\nsamples = 23\nvalue = [23, 0]"] ;
545 -> 546 ;
547 [label="MonthlyIncome <= 64035.0\ngini = 0.219\nsamples = 120\nvalue = [105, 15]"] ;
545 -> 547 ;
548 [label="gini = 0.5\nsamples = 6\nvalue = [3, 3]"] ;
547 -> 548 ;
549 [label="MonthlyIncome <= 64995.0\ngini = 0.188\nsamples = 114\nvalue = [102, 12]"] ;
547 -> 549 ;
550 [label="gini = 0.0\nsamples = 27\nvalue = [27, 0]"] ;
549 -> 550 ;
551 [label="MonthlyIncome <= 65010.0\ngini = 0.238\nsamples = 87\nvalue = [75, 12]"] ;
549 -> 551 ;
552 [label="gini = 0.5\nsamples = 6\nvalue = [3, 3]"] ;
551 -> 552 ;
553 [label="MonthlyIncome <= 65425.0\ngini = 0.198\nsamples = 81\nvalue = [72, 9]"] ;
551 -> 553 ;
554 [label="gini = 0.0\nsamples = 18\nvalue = [18, 0]"] ;
553 -> 554 ;
555 [label="MonthlyIncome <= 65470.0\ngini = 0.245\nsamples = 63\nvalue = [54, 9]"] ;
553 -> 555 ;
556 [label="gini = 0.0\nsamples = 3\nvalue = [0, 3]"] ;
555 -> 556 ;
557 [label="MonthlyIncome <= 66525.0\ngini = 0.18\nsamples = 60\nvalue = [54, 6]"] ;
555 -> 557 ;
558 [label="MonthlyIncome <= 66515.0\ngini = 0.245\nsamples = 42\nvalue = [36, 6]"] ;
557 -> 558 ;
559 [label="MonthlyIncome <= 65800.0\ngini = 0.142\nsamples = 39\nvalue = [36, 3]"] ;
558 -> 559 ;
560 [label="MonthlyIncome <= 65775.0\ngini = 0.32\nsamples = 15\nvalue = [12, 3]"] ;
559 -> 560 ;
561 [label="gini = 0.0\nsamples = 12\nvalue = [12, 0]"] ;
560 -> 561 ;
562 [label="gini = 0.0\nsamples = 3\nvalue = [0, 3]"] ;
560 -> 562 ;
563 [label="gini = 0.0\nsamples = 24\nvalue = [24, 0]"] ;
559 -> 563 ;
564 [label="gini = 0.0\nsamples = 3\nvalue = [0, 3]"] ;
558 -> 564 ;
565 [label="gini = 0.0\nsamples = 18\nvalue = [18, 0]"] ;
557 -> 565 ;
566 [label="MonthlyIncome <= 67040.0\ngini = 0.408\nsamples = 63\nvalue = [45, 18]"] ;
482 -> 566 ;
567 [label="gini = 0.0\nsamples = 3\nvalue = [0, 3]"] ;
566 -> 567 ;
568 [label="MonthlyIncome <= 68290.0\ngini = 0.375\nsamples = 60\nvalue = [45, 15]"] ;
566 -> 568 ;
569 [label="MonthlyIncome <= 68200.0\ngini = 0.43\nsamples = 48\nvalue = [33, 15]"] ;
568 -> 569 ;
570 [label="MonthlyIncome <= 67975.0\ngini = 0.391\nsamples = 45\nvalue = [33, 12]"] ;
569 -> 570 ;
571 [label="MonthlyIncome <= 67890.0\ngini = 0.469\nsamples = 24\nvalue = [15, 9]"] ;
570 -> 571 ;
572 [label="MonthlyIncome <= 67265.0\ngini = 0.408\nsamples = 21\nvalue = [15, 6]"] ;
571 -> 572 ;
573 [label="gini = 0.0\nsamples = 6\nvalue = [6, 0]"] ;
572 -> 573 ;
574 [label="MonthlyIncome <= 67680.0\ngini = 0.48\nsamples = 15\nvalue = [9, 6]"] ;
572 -> 574 ;
575 [label="MonthlyIncome <= 67315.0\ngini = 0.444\nsamples = 9\nvalue = [3, 6]"] ;
574 -> 575 ;
576 [label="gini = 0.0\nsamples = 3\nvalue = [0, 3]"] ;
575 -> 576 ;
577 [label="MonthlyIncome <= 67450.0\ngini = 0.5\nsamples = 6\nvalue = [3, 3]"] ;
575 -> 577 ;
578 [label="gini = 0.0\nsamples = 3\nvalue = [3, 0]"] ;
577 -> 578 ;
579 [label="gini = 0.0\nsamples = 3\nvalue = [0, 3]"] ;
577 -> 579 ;
580 [label="gini = 0.0\nsamples = 6\nvalue = [6, 0]"] ;
574 -> 580 ;
581 [label="gini = 0.0\nsamples = 3\nvalue = [0, 3]"] ;
571 -> 581 ;
582 [label="MonthlyIncome <= 68075.0\ngini = 0.245\nsamples = 21\nvalue = [18, 3]"] ;
570 -> 582 ;
583 [label="gini = 0.0\nsamples = 9\nvalue = [9, 0]"] ;
582 -> 583 ;
584 [label="MonthlyIncome <= 68115.0\ngini = 0.375\nsamples = 12\nvalue = [9, 3]"] ;
582 -> 584 ;
585 [label="gini = 0.5\nsamples = 6\nvalue = [3, 3]"] ;
584 -> 585 ;
586 [label="gini = 0.0\nsamples = 6\nvalue = [6, 0]"] ;
584 -> 586 ;
587 [label="gini = 0.0\nsamples = 3\nvalue = [0, 3]"] ;
569 -> 587 ;
588 [label="gini = 0.0\nsamples = 12\nvalue = [12, 0]"] ;
568 -> 588 ;
589 [label="gini = 0.0\nsamples = 3\nvalue = [0, 3]"] ;
481 -> 589 ;
590 [label="gini = 0.0\nsamples = 39\nvalue = [39, 0]"] ;
480 -> 590 ;
591 [label="MonthlyIncome <= 71115.0\ngini = 0.375\nsamples = 12\nvalue = [3, 9]"] ;
479 -> 591 ;
592 [label="gini = 0.0\nsamples = 6\nvalue = [0, 6]"] ;
591 -> 592 ;
593 [label="MonthlyIncome <= 71295.0\ngini = 0.5\nsamples = 6\nvalue = [3, 3]"] ;
591 -> 593 ;
594 [label="gini = 0.0\nsamples = 3\nvalue = [3, 0]"] ;
593 -> 594 ;
595 [label="gini = 0.0\nsamples = 3\nvalue = [0, 3]"] ;
593 -> 595 ;
596 [label="MonthlyIncome <= 74200.0\ngini = 0.113\nsamples = 50\nvalue = [47, 3]"] ;
478 -> 596 ;
597 [label="gini = 0.0\nsamples = 32\nvalue = [32, 0]"] ;
596 -> 597 ;
598 [label="MonthlyIncome <= 74345.0\ngini = 0.278\nsamples = 18\nvalue = [15, 3]"] ;
596 -> 598 ;
599 [label="gini = 0.0\nsamples = 3\nvalue = [0, 3]"] ;
598 -> 599 ;
600 [label="gini = 0.0\nsamples = 15\nvalue = [15, 0]"] ;
598 -> 600 ;
601 [label="gini = 0.0\nsamples = 6\nvalue = [0, 6]"] ;
477 -> 601 ;
602 [label="gini = 0.0\nsamples = 27\nvalue = [27, 0]"] ;
476 -> 602 ;
603 [label="gini = 0.0\nsamples = 9\nvalue = [0, 9]"] ;
3 -> 603 ;
604 [label="MonthlyIncome <= 80575.0\ngini = 0.228\nsamples = 1183\nvalue = [1028, 155]"] ;
2 -> 604 ;
605 [label="gini = 0.0\nsamples = 54\nvalue = [54, 0]"] ;
604 -> 605 ;
606 [label="MonthlyIncome <= 80990.0\ngini = 0.237\nsamples = 1129\nvalue = [974, 155]"] ;
604 -> 606 ;
607 [label="gini = 0.0\nsamples = 3\nvalue = [0, 3]"] ;
606 -> 607 ;
608 [label="MonthlyIncome <= 82945.0\ngini = 0.234\nsamples = 1126\nvalue = [974, 152]"] ;
606 -> 608 ;
609 [label="MonthlyIncome <= 82305.0\ngini = 0.408\nsamples = 21\nvalue = [15, 6]"] ;
608 -> 609 ;
610 [label="gini = 0.0\nsamples = 15\nvalue = [15, 0]"] ;
609 -> 610 ;
611 [label="gini = 0.0\nsamples = 6\nvalue = [0, 6]"] ;
609 -> 611 ;
612 [label="MonthlyIncome <= 137390.0\ngini = 0.229\nsamples = 1105\nvalue = [959, 146]"] ;
608 -> 612 ;
613 [label="MonthlyIncome <= 109705.0\ngini = 0.201\nsamples = 653\nvalue = [579, 74]"] ;
612 -> 613 ;
614 [label="MonthlyIncome <= 109260.0\ngini = 0.245\nsamples = 455\nvalue = [390, 65]"] ;
613 -> 614 ;
615 [label="MonthlyIncome <= 84545.0\ngini = 0.221\nsamples = 443\nvalue = [387, 56]"] ;
614 -> 615 ;
616 [label="gini = 0.0\nsamples = 26\nvalue = [26, 0]"] ;
615 -> 616 ;
617 [label="MonthlyIncome <= 84685.0\ngini = 0.233\nsamples = 417\nvalue = [361, 56]"] ;
615 -> 617 ;
618 [label="gini = 0.0\nsamples = 3\nvalue = [0, 3]"] ;
617 -> 618 ;
619 [label="MonthlyIncome <= 108815.0\ngini = 0.223\nsamples = 414\nvalue = [361, 53]"] ;
617 -> 619 ;
620 [label="MonthlyIncome <= 104285.0\ngini = 0.216\nsamples = 405\nvalue = [355, 50]"] ;
619 -> 620 ;
621 [label="MonthlyIncome <= 103940.0\ngini = 0.246\nsamples = 307\nvalue = [263, 44]"] ;
620 -> 621 ;
622 [label="MonthlyIncome <= 86245.0\ngini = 0.221\nsamples = 301\nvalue = [263, 38]"] ;
621 -> 622 ;
623 [label="gini = 0.0\nsamples = 20\nvalue = [20, 0]"] ;
622 -> 623 ;
624 [label="MonthlyIncome <= 86625.0\ngini = 0.234\nsamples = 281\nvalue = [243, 38]"] ;
622 -> 624 ;
625 [label="MonthlyIncome <= 86305.0\ngini = 0.444\nsamples = 9\nvalue = [3, 6]"] ;
624 -> 625 ;
626 [label="gini = 0.0\nsamples = 3\nvalue = [0, 3]"] ;
625 -> 626 ;
627 [label="MonthlyIncome <= 86360.0\ngini = 0.5\nsamples = 6\nvalue = [3, 3]"] ;
625 -> 627 ;
628 [label="gini = 0.0\nsamples = 3\nvalue = [3, 0]"] ;
627 -> 628 ;
629 [label="gini = 0.0\nsamples = 3\nvalue = [0, 3]"] ;
627 -> 629 ;
630 [label="MonthlyIncome <= 100720.0\ngini = 0.208\nsamples = 272\nvalue = [240, 32]"] ;
624 -> 630 ;
631 [label="MonthlyIncome <= 99300.0\ngini = 0.178\nsamples = 213\nvalue = [192, 21]"] ;
630 -> 631 ;
632 [label="MonthlyIncome <= 99155.0\ngini = 0.205\nsamples = 181\nvalue = [160, 21]"] ;
631 -> 632 ;
633 [label="MonthlyIncome <= 88080.0\ngini = 0.182\nsamples = 178\nvalue = [160, 18]"] ;
632 -> 633 ;
634 [label="gini = 0.0\nsamples = 18\nvalue = [18, 0]"] ;
633 -> 634 ;
635 [label="MonthlyIncome <= 88285.0\ngini = 0.2\nsamples = 160\nvalue = [142, 18]"] ;
633 -> 635 ;
636 [label="gini = 0.0\nsamples = 3\nvalue = [0, 3]"] ;
635 -> 636 ;
637 [label="MonthlyIncome <= 89820.0\ngini = 0.173\nsamples = 157\nvalue = [142, 15]"] ;
635 -> 637 ;
638 [label="gini = 0.0\nsamples = 29\nvalue = [29, 0]"] ;
637 -> 638 ;
639 [label="MonthlyIncome <= 90335.0\ngini = 0.207\nsamples = 128\nvalue = [113, 15]"] ;
637 -> 639 ;
640 [label="gini = 0.0\nsamples = 3\nvalue = [0, 3]"] ;
639 -> 640 ;
641 [label="MonthlyIncome <= 93880.0\ngini = 0.174\nsamples = 125\nvalue = [113, 12]"] ;
639 -> 641 ;
642 [label="gini = 0.0\nsamples = 33\nvalue = [33, 0]"] ;
641 -> 642 ;
643 [label="MonthlyIncome <= 94075.0\ngini = 0.227\nsamples = 92\nvalue = [80, 12]"] ;
641 -> 643 ;
644 [label="gini = 0.0\nsamples = 3\nvalue = [0, 3]"] ;
643 -> 644 ;
645 [label="MonthlyIncome <= 95920.0\ngini = 0.182\nsamples = 89\nvalue = [80, 9]"] ;
643 -> 645 ;
646 [label="gini = 0.0\nsamples = 21\nvalue = [21, 0]"] ;
645 -> 646 ;
647 [label="MonthlyIncome <= 96060.0\ngini = 0.23\nsamples = 68\nvalue = [59, 9]"] ;
645 -> 647 ;
648 [label="gini = 0.0\nsamples = 3\nvalue = [0, 3]"] ;
647 -> 648 ;
649 [label="MonthlyIncome <= 97135.0\ngini = 0.168\nsamples = 65\nvalue = [59, 6]"] ;
647 -> 649 ;
650 [label="gini = 0.0\nsamples = 27\nvalue = [27, 0]"] ;
649 -> 650 ;
651 [label="MonthlyIncome <= 97145.0\ngini = 0.266\nsamples = 38\nvalue = [32, 6]"] ;
649 -> 651 ;
652 [label="gini = 0.0\nsamples = 3\nvalue = [0, 3]"] ;
651 -> 652 ;
653 [label="MonthlyIncome <= 97900.0\ngini = 0.157\nsamples = 35\nvalue = [32, 3]"] ;
651 -> 653 ;
654 [label="gini = 0.0\nsamples = 15\nvalue = [15, 0]"] ;
653 -> 654 ;
655 [label="MonthlyIncome <= 98380.0\ngini = 0.255\nsamples = 20\nvalue = [17, 3]"] ;
653 -> 655 ;
656 [label="gini = 0.5\nsamples = 6\nvalue = [3, 3]"] ;
655 -> 656 ;
657 [label="gini = 0.0\nsamples = 14\nvalue = [14, 0]"] ;
655 -> 657 ;
658 [label="gini = 0.0\nsamples = 3\nvalue = [0, 3]"] ;
632 -> 658 ;
659 [label="gini = 0.0\nsamples = 32\nvalue = [32, 0]"] ;
631 -> 659 ;
660 [label="MonthlyIncome <= 102350.0\ngini = 0.303\nsamples = 59\nvalue = [48, 11]"] ;
630 -> 660 ;
661 [label="MonthlyIncome <= 102260.0\ngini = 0.48\nsamples = 20\nvalue = [12, 8]"] ;
660 -> 661 ;
662 [label="MonthlyIncome <= 101890.0\ngini = 0.415\nsamples = 17\nvalue = [12, 5]"] ;
661 -> 662 ;
663 [label="MonthlyIncome <= 101100.0\ngini = 0.298\nsamples = 11\nvalue = [9, 2]"] ;
662 -> 663 ;
664 [label="gini = 0.48\nsamples = 5\nvalue = [3, 2]"] ;
663 -> 664 ;
665 [label="gini = 0.0\nsamples = 6\nvalue = [6, 0]"] ;
663 -> 665 ;
666 [label="MonthlyIncome <= 102150.0\ngini = 0.5\nsamples = 6\nvalue = [3, 3]"] ;
662 -> 666 ;
667 [label="gini = 0.0\nsamples = 3\nvalue = [0, 3]"] ;
666 -> 667 ;
668 [label="gini = 0.0\nsamples = 3\nvalue = [3, 0]"] ;
666 -> 668 ;
669 [label="gini = 0.0\nsamples = 3\nvalue = [0, 3]"] ;
661 -> 669 ;
670 [label="MonthlyIncome <= 103290.0\ngini = 0.142\nsamples = 39\nvalue = [36, 3]"] ;
660 -> 670 ;
671 [label="gini = 0.0\nsamples = 27\nvalue = [27, 0]"] ;
670 -> 671 ;
672 [label="MonthlyIncome <= 103505.0\ngini = 0.375\nsamples = 12\nvalue = [9, 3]"] ;
670 -> 672 ;
673 [label="gini = 0.0\nsamples = 3\nvalue = [0, 3]"] ;
672 -> 673 ;
674 [label="gini = 0.0\nsamples = 9\nvalue = [9, 0]"] ;
672 -> 674 ;
675 [label="gini = 0.0\nsamples = 6\nvalue = [0, 6]"] ;
621 -> 675 ;
676 [label="MonthlyIncome <= 106490.0\ngini = 0.115\nsamples = 98\nvalue = [92, 6]"] ;
620 -> 676 ;
677 [label="gini = 0.0\nsamples = 51\nvalue = [51, 0]"] ;
676 -> 677 ;
678 [label="MonthlyIncome <= 106615.0\ngini = 0.223\nsamples = 47\nvalue = [41, 6]"] ;
676 -> 678 ;
679 [label="gini = 0.0\nsamples = 3\nvalue = [0, 3]"] ;
678 -> 679 ;
680 [label="MonthlyIncome <= 107545.0\ngini = 0.127\nsamples = 44\nvalue = [41, 3]"] ;
678 -> 680 ;
681 [label="MonthlyIncome <= 107435.0\ngini = 0.278\nsamples = 18\nvalue = [15, 3]"] ;
680 -> 681 ;
682 [label="gini = 0.0\nsamples = 15\nvalue = [15, 0]"] ;
681 -> 682 ;
683 [label="gini = 0.0\nsamples = 3\nvalue = [0, 3]"] ;
681 -> 683 ;
684 [label="gini = 0.0\nsamples = 26\nvalue = [26, 0]"] ;
680 -> 684 ;
685 [label="MonthlyIncome <= 108930.0\ngini = 0.444\nsamples = 9\nvalue = [6, 3]"] ;
619 -> 685 ;
686 [label="gini = 0.0\nsamples = 3\nvalue = [0, 3]"] ;
685 -> 686 ;
687 [label="gini = 0.0\nsamples = 6\nvalue = [6, 0]"] ;
685 -> 687 ;
688 [label="MonthlyIncome <= 109360.0\ngini = 0.375\nsamples = 12\nvalue = [3, 9]"] ;
614 -> 688 ;
689 [label="gini = 0.0\nsamples = 6\nvalue = [0, 6]"] ;
688 -> 689 ;
690 [label="MonthlyIncome <= 109515.0\ngini = 0.5\nsamples = 6\nvalue = [3, 3]"] ;
688 -> 690 ;
691 [label="gini = 0.0\nsamples = 3\nvalue = [3, 0]"] ;
690 -> 691 ;
692 [label="gini = 0.0\nsamples = 3\nvalue = [0, 3]"] ;
690 -> 692 ;
693 [label="MonthlyIncome <= 134975.0\ngini = 0.087\nsamples = 198\nvalue = [189, 9]"] ;
613 -> 693 ;
694 [label="MonthlyIncome <= 123375.0\ngini = 0.038\nsamples = 153\nvalue = [150, 3]"] ;
693 -> 694 ;
695 [label="gini = 0.0\nsamples = 78\nvalue = [78, 0]"] ;
694 -> 695 ;
696 [label="MonthlyIncome <= 124970.0\ngini = 0.077\nsamples = 75\nvalue = [72, 3]"] ;
694 -> 696 ;
697 [label="gini = 0.0\nsamples = 3\nvalue = [0, 3]"] ;
696 -> 697 ;
698 [label="gini = 0.0\nsamples = 72\nvalue = [72, 0]"] ;
696 -> 698 ;
699 [label="MonthlyIncome <= 135370.0\ngini = 0.231\nsamples = 45\nvalue = [39, 6]"] ;
693 -> 699 ;
700 [label="MonthlyIncome <= 135010.0\ngini = 0.444\nsamples = 9\nvalue = [3, 6]"] ;
699 -> 700 ;
701 [label="gini = 0.0\nsamples = 3\nvalue = [0, 3]"] ;
700 -> 701 ;
702 [label="MonthlyIncome <= 135140.0\ngini = 0.5\nsamples = 6\nvalue = [3, 3]"] ;
700 -> 702 ;
703 [label="gini = 0.0\nsamples = 3\nvalue = [3, 0]"] ;
702 -> 703 ;
704 [label="gini = 0.0\nsamples = 3\nvalue = [0, 3]"] ;
702 -> 704 ;
705 [label="gini = 0.0\nsamples = 36\nvalue = [36, 0]"] ;
699 -> 705 ;
706 [label="MonthlyIncome <= 137980.0\ngini = 0.268\nsamples = 452\nvalue = [380, 72]"] ;
612 -> 706 ;
707 [label="MonthlyIncome <= 137575.0\ngini = 0.375\nsamples = 12\nvalue = [3, 9]"] ;
706 -> 707 ;
708 [label="MonthlyIncome <= 137505.0\ngini = 0.5\nsamples = 6\nvalue = [3, 3]"] ;
707 -> 708 ;
709 [label="gini = 0.0\nsamples = 3\nvalue = [0, 3]"] ;
708 -> 709 ;
710 [label="gini = 0.0\nsamples = 3\nvalue = [3, 0]"] ;
708 -> 710 ;
711 [label="gini = 0.0\nsamples = 6\nvalue = [0, 6]"] ;
707 -> 711 ;
712 [label="MonthlyIncome <= 143735.0\ngini = 0.245\nsamples = 440\nvalue = [377, 63]"] ;
706 -> 712 ;
713 [label="gini = 0.0\nsamples = 27\nvalue = [27, 0]"] ;
712 -> 713 ;
714 [label="MonthlyIncome <= 145715.0\ngini = 0.259\nsamples = 413\nvalue = [350, 63]"] ;
712 -> 714 ;
715 [label="gini = 0.0\nsamples = 3\nvalue = [0, 3]"] ;
714 -> 715 ;
716 [label="MonthlyIncome <= 160940.0\ngini = 0.25\nsamples = 410\nvalue = [350, 60]"] ;
714 -> 716 ;
717 [label="MonthlyIncome <= 156070.0\ngini = 0.408\nsamples = 42\nvalue = [30, 12]"] ;
716 -> 717 ;
718 [label="gini = 0.0\nsamples = 24\nvalue = [24, 0]"] ;
717 -> 718 ;
719 [label="MonthlyIncome <= 160035.0\ngini = 0.444\nsamples = 18\nvalue = [6, 12]"] ;
717 -> 719 ;
720 [label="gini = 0.0\nsamples = 9\nvalue = [0, 9]"] ;
719 -> 720 ;
721 [label="MonthlyIncome <= 160480.0\ngini = 0.444\nsamples = 9\nvalue = [6, 3]"] ;
719 -> 721 ;
722 [label="gini = 0.0\nsamples = 6\nvalue = [6, 0]"] ;
721 -> 722 ;
723 [label="gini = 0.0\nsamples = 3\nvalue = [0, 3]"] ;
721 -> 723 ;
724 [label="MonthlyIncome <= 165965.0\ngini = 0.227\nsamples = 368\nvalue = [320, 48]"] ;
716 -> 724 ;
725 [label="gini = 0.0\nsamples = 30\nvalue = [30, 0]"] ;
724 -> 725 ;
726 [label="MonthlyIncome <= 166020.0\ngini = 0.244\nsamples = 338\nvalue = [290, 48]"] ;
724 -> 726 ;
727 [label="gini = 0.0\nsamples = 3\nvalue = [0, 3]"] ;
726 -> 727 ;
728 [label="MonthlyIncome <= 167955.0\ngini = 0.233\nsamples = 335\nvalue = [290, 45]"] ;
726 -> 728 ;
729 [label="gini = 0.0\nsamples = 20\nvalue = [20, 0]"] ;
728 -> 729 ;
730 [label="MonthlyIncome <= 168110.0\ngini = 0.245\nsamples = 315\nvalue = [270, 45]"] ;
728 -> 730 ;
731 [label="gini = 0.0\nsamples = 3\nvalue = [0, 3]"] ;
730 -> 731 ;
732 [label="MonthlyIncome <= 174125.0\ngini = 0.233\nsamples = 312\nvalue = [270, 42]"] ;
730 -> 732 ;
733 [label="MonthlyIncome <= 172545.0\ngini = 0.32\nsamples = 60\nvalue = [48, 12]"] ;
732 -> 733 ;
734 [label="MonthlyIncome <= 168825.0\ngini = 0.208\nsamples = 51\nvalue = [45, 6]"] ;
733 -> 734 ;
735 [label="gini = 0.0\nsamples = 15\nvalue = [15, 0]"] ;
734 -> 735 ;
736 [label="MonthlyIncome <= 169220.0\ngini = 0.278\nsamples = 36\nvalue = [30, 6]"] ;
734 -> 736 ;
737 [label="gini = 0.0\nsamples = 3\nvalue = [0, 3]"] ;
736 -> 737 ;
738 [label="MonthlyIncome <= 171110.0\ngini = 0.165\nsamples = 33\nvalue = [30, 3]"] ;
736 -> 738 ;
739 [label="gini = 0.0\nsamples = 18\nvalue = [18, 0]"] ;
738 -> 739 ;
740 [label="MonthlyIncome <= 171410.0\ngini = 0.32\nsamples = 15\nvalue = [12, 3]"] ;
738 -> 740 ;
741 [label="gini = 0.0\nsamples = 3\nvalue = [0, 3]"] ;
740 -> 741 ;
742 [label="gini = 0.0\nsamples = 12\nvalue = [12, 0]"] ;
740 -> 742 ;
743 [label="MonthlyIncome <= 173635.0\ngini = 0.444\nsamples = 9\nvalue = [3, 6]"] ;
733 -> 743 ;
744 [label="gini = 0.5\nsamples = 6\nvalue = [3, 3]"] ;
743 -> 744 ;
745 [label="gini = 0.0\nsamples = 3\nvalue = [0, 3]"] ;
743 -> 745 ;
746 [label="MonthlyIncome <= 178680.0\ngini = 0.21\nsamples = 252\nvalue = [222, 30]"] ;
732 -> 746 ;
747 [label="gini = 0.0\nsamples = 39\nvalue = [39, 0]"] ;
746 -> 747 ;
748 [label="MonthlyIncome <= 179825.0\ngini = 0.242\nsamples = 213\nvalue = [183, 30]"] ;
746 -> 748 ;
749 [label="gini = 0.0\nsamples = 6\nvalue = [0, 6]"] ;
748 -> 749 ;
750 [label="MonthlyIncome <= 187645.0\ngini = 0.205\nsamples = 207\nvalue = [183, 24]"] ;
748 -> 750 ;
751 [label="gini = 0.0\nsamples = 42\nvalue = [42, 0]"] ;
750 -> 751 ;
752 [label="MonthlyIncome <= 188065.0\ngini = 0.249\nsamples = 165\nvalue = [141, 24]"] ;
750 -> 752 ;
753 [label="gini = 0.0\nsamples = 3\nvalue = [0, 3]"] ;
752 -> 753 ;
754 [label="MonthlyIncome <= 193000.0\ngini = 0.226\nsamples = 162\nvalue = [141, 21]"] ;
752 -> 754 ;
755 [label="MonthlyIncome <= 192590.0\ngini = 0.287\nsamples = 69\nvalue = [57, 12]"] ;
754 -> 755 ;
756 [label="MonthlyIncome <= 191935.0\ngini = 0.236\nsamples = 66\nvalue = [57, 9]"] ;
755 -> 756 ;
757 [label="MonthlyIncome <= 191895.0\ngini = 0.291\nsamples = 51\nvalue = [42, 9]"] ;
756 -> 757 ;
758 [label="MonthlyIncome <= 189900.0\ngini = 0.219\nsamples = 48\nvalue = [42, 6]"] ;
757 -> 758 ;
759 [label="MonthlyIncome <= 189135.0\ngini = 0.375\nsamples = 12\nvalue = [9, 3]"] ;
758 -> 759 ;
760 [label="gini = 0.0\nsamples = 9\nvalue = [9, 0]"] ;
759 -> 760 ;
761 [label="gini = 0.0\nsamples = 3\nvalue = [0, 3]"] ;
759 -> 761 ;
762 [label="MonthlyIncome <= 191425.0\ngini = 0.153\nsamples = 36\nvalue = [33, 3]"] ;
758 -> 762 ;
763 [label="gini = 0.0\nsamples = 24\nvalue = [24, 0]"] ;
762 -> 763 ;
764 [label="MonthlyIncome <= 191525.0\ngini = 0.375\nsamples = 12\nvalue = [9, 3]"] ;
762 -> 764 ;
765 [label="gini = 0.0\nsamples = 3\nvalue = [0, 3]"] ;
764 -> 765 ;
766 [label="gini = 0.0\nsamples = 9\nvalue = [9, 0]"] ;
764 -> 766 ;
767 [label="gini = 0.0\nsamples = 3\nvalue = [0, 3]"] ;
757 -> 767 ;
768 [label="gini = 0.0\nsamples = 15\nvalue = [15, 0]"] ;
756 -> 768 ;
769 [label="gini = 0.0\nsamples = 3\nvalue = [0, 3]"] ;
755 -> 769 ;
770 [label="MonthlyIncome <= 195555.0\ngini = 0.175\nsamples = 93\nvalue = [84, 9]"] ;
754 -> 770 ;
771 [label="gini = 0.0\nsamples = 36\nvalue = [36, 0]"] ;
770 -> 771 ;
772 [label="MonthlyIncome <= 195760.0\ngini = 0.266\nsamples = 57\nvalue = [48, 9]"] ;
770 -> 772 ;
773 [label="gini = 0.0\nsamples = 3\nvalue = [0, 3]"] ;
772 -> 773 ;
774 [label="MonthlyIncome <= 196315.0\ngini = 0.198\nsamples = 54\nvalue = [48, 6]"] ;
772 -> 774 ;
775 [label="MonthlyIncome <= 196265.0\ngini = 0.375\nsamples = 12\nvalue = [9, 3]"] ;
774 -> 775 ;
776 [label="gini = 0.0\nsamples = 9\nvalue = [9, 0]"] ;
775 -> 776 ;
777 [label="gini = 0.0\nsamples = 3\nvalue = [0, 3]"] ;
775 -> 777 ;
778 [label="MonthlyIncome <= 198530.0\ngini = 0.133\nsamples = 42\nvalue = [39, 3]"] ;
774 -> 778 ;
779 [label="gini = 0.0\nsamples = 27\nvalue = [27, 0]"] ;
778 -> 779 ;
780 [label="MonthlyIncome <= 198925.0\ngini = 0.32\nsamples = 15\nvalue = [12, 3]"] ;
778 -> 780 ;
781 [label="gini = 0.0\nsamples = 3\nvalue = [0, 3]"] ;
780 -> 781 ;
782 [label="gini = 0.0\nsamples = 12\nvalue = [12, 0]"] ;
780 -> 782 ;
}